{"name": "test1", "weights": {"features.0.weight": [[-0.172668918967247, 0.11223384737968445, 0.08360452950000763, -0.1763516068458557, 0.3339330852031708, -0.022897355258464813, 0.37046968936920166, 0.07397247105836868, -0.05038163438439369, -0.08197049796581268, 0.07211429625749588, -0.06705205142498016, 0.5325609445571899, 0.43076542019844055, -0.05193834379315376], [0.17537450790405273, 0.06489183753728867, 0.12331593036651611, 0.06000615283846855, -0.1754365861415863, -0.3205130100250244, -0.23329199850559235, -0.11406134814023972, 0.24456797540187836, -0.09672769904136658, -0.4154667854309082, -0.32382866740226746, -0.0950854942202568, -0.4141530394554138, -0.4625433087348938], [-0.03660670295357704, 0.00818747840821743, -0.4433422386646271, 0.4989331066608429, -0.005361180752515793, 0.4137866497039795, 0.025962108746170998, 0.1684798151254654, -0.1578734964132309, 0.21876613795757294, -0.17461375892162323, -0.02373754046857357, 0.5066551566123962, 0.4098963439464569, -0.06597717106342316], [-0.22069333493709564, -0.14848053455352783, -0.24404609203338623, -0.19334836304187775, 0.043595071882009506, -0.08839985728263855, 0.3142717182636261, 0.14604920148849487, 0.018083365634083748, -0.05861017853021622, -0.42811065912246704, -0.05822857841849327, 0.19871875643730164, -0.06058063358068466, -0.14694039523601532], [0.37059101462364197, 0.04456803575158119, 0.13506603240966797, 0.0885760560631752, -0.11286952346563339, 0.24695643782615662, -0.15216682851314545, 0.40489715337753296, -0.04489975795149803, -0.24918317794799805, -0.22272521257400513, -0.13465283811092377, 0.20952007174491882, -0.0537632517516613, -0.09438969194889069], [0.06612644344568253, 0.4397554397583008, -0.05545184761285782, 0.287888765335083, -0.31564369797706604, 0.4293435513973236, -0.10312491655349731, 0.3033725321292877, -0.25598329305648804, 0.1541953980922699, 0.20476464927196503, 0.2071351706981659, 0.1223355159163475, -0.1525866538286209, -0.12524251639842987], [0.3347545862197876, -0.10393185913562775, -0.18138909339904785, 0.13817305862903595, -0.34154653549194336, 0.074953094124794, -0.1435505747795105, -0.2039608210325241, -0.2000553160905838, -0.1773761361837387, -0.2763114869594574, 0.1585799604654312, 0.11898493021726608, 0.5209365487098694, 0.220182403922081], [-0.4272162616252899, -0.21288339793682098, -0.00045381125528365374, -0.24044457077980042, 0.171163409948349, 0.1764536201953888, 0.2325657159090042, -0.17656807601451874, 0.396624892950058, -0.0018245258834213018, -0.07815011590719223, 0.035217754542827606, 0.25483131408691406, 0.23364892601966858, 0.07570983469486237], [-0.1664329171180725, -0.48521310091018677, -0.1736573427915573, -0.007646236568689346, -0.30269795656204224, -0.00771799311041832, 0.3530226945877075, -0.17766429483890533, -0.1997542679309845, -0.2090243250131607, 0.2805486023426056, 0.004314660560339689, -0.11499427258968353, -0.4865003526210785, 0.20697154104709625], [0.4039052724838257, -0.25630983710289, -0.017235342413187027, -0.03154671937227249, -0.4405245780944824, 0.09470897912979126, -0.0938476026058197, 0.12038495391607285, 0.10443062335252762, -0.212549090385437, 0.046235591173172, 0.015959160402417183, 0.09426183998584747, 0.3181639015674591, 0.1932561844587326], [0.19269558787345886, 0.14761996269226074, -0.032793570309877396, 0.21338103711605072, -0.3326176702976227, -0.33862337470054626, -0.0021387850865721703, 0.18678753077983856, 0.08021833002567291, -0.18734577298164368, -0.008749227039515972, 0.12271744012832642, 0.4884570837020874, -0.46123915910720825, 0.005379488691687584], [0.2218051552772522, 0.38112854957580566, -0.31395384669303894, 0.031587813049554825, -0.2717016041278839, 0.019476881250739098, -0.2936939299106598, -0.08545143157243729, 0.587925910949707, 0.060957714915275574, 0.04005814716219902, -0.21091574430465698, -0.3336559534072876, 0.1261722296476364, -0.028025342151522636], [-0.3896384835243225, -0.1334557980298996, -0.03818972408771515, -0.275626540184021, 0.01900179497897625, -0.03730667382478714, 0.03544728457927704, 0.23142866790294647, 0.16648909449577332, -0.11240868270397186, -0.3438895642757416, 0.032117217779159546, 0.28432247042655945, -0.13196702301502228, -0.03168084844946861], [-0.38136357069015503, 0.2521986961364746, -0.37752270698547363, 0.008013716898858547, -0.14997828006744385, 0.02622090093791485, -0.009435138665139675, -0.034653037786483765, 0.014766589738428593, 0.1933526247739792, -0.28533098101615906, 0.0663881003856659, 0.2926082909107208, -0.09937689453363419, 0.31691741943359375], [0.38277411460876465, -0.19047889113426208, 0.07932436466217041, -0.027843398973345757, 0.11464712768793106, 0.04096781089901924, 0.25683271884918213, -0.014380339533090591, 0.29390767216682434, 0.4458184242248535, 0.060812097042798996, 0.20918560028076172, 0.16578133404254913, 0.5224384665489197, -0.02062511257827282], [0.015294364653527737, -0.6219415664672852, -0.041783105581998825, 0.045876894146203995, 0.4439968168735504, 0.05373332276940346, 0.19388380646705627, 0.08204948902130127, 0.24941372871398926, -0.22244037687778473, -0.0997309759259224, 0.11422590911388397, 0.14251397550106049, 0.2230682671070099, 0.3916449546813965], [0.18827101588249207, -0.2583320438861847, -0.027283357456326485, -0.1714104562997818, 0.02912059985101223, -0.00664452463388443, 0.20659393072128296, -0.23551703989505768, 0.5622788667678833, 0.43929117918014526, 0.048067983239889145, 0.12855164706707, 0.2119966596364975, 0.22605425119400024, 0.18123571574687958], [0.2181447595357895, -0.1306028664112091, 0.07554389536380768, -0.09771929681301117, 0.0008285603835247457, 0.07289095222949982, 0.16242271661758423, 0.0764511451125145, 0.2997468113899231, -0.12178247421979904, 0.14744886755943298, 0.149835005402565, 0.28574779629707336, 0.05374496802687645, -0.16671842336654663], [-0.3223757743835449, 0.16565021872520447, 0.08573196828365326, 0.23322711884975433, -0.23498983681201935, 0.3964986205101013, -0.014969030395150185, 0.2166672646999359, -0.2432556450366974, 0.2705039381980896, -0.32915884256362915, 0.030286280438303947, -0.01133560761809349, 0.6142104268074036, -0.2461225986480713], [0.14077726006507874, 0.09003432095050812, 0.27035078406333923, -0.10963813215494156, -0.01640835404396057, -0.0771968886256218, -0.1262887716293335, 0.10347188264131546, 0.0945170447230339, -0.07398971915245056, 0.27486392855644226, 0.02851988561451435, -0.11228705197572708, 0.32834506034851074, 0.2018316090106964], [-0.21109597384929657, 0.182709738612175, 0.21841192245483398, 0.20601239800453186, 0.2690293490886688, 0.012732183560729027, 0.15064792335033417, 0.184856578707695, 0.7295851111412048, 0.3349737823009491, 0.18391503393650055, 0.28447848558425903, 0.2612096667289734, -0.1490352600812912, -0.14610004425048828], [-0.3101859390735626, -0.20390166342258453, -0.3407430946826935, -0.08448087424039841, -0.1796749234199524, -0.2397993803024292, -0.413202702999115, -0.041868649423122406, -0.037459246814250946, 0.4004400372505188, 0.3933100998401642, 0.0908401757478714, -0.07848244905471802, -0.06907197088003159, -0.2145274430513382], [0.26718899607658386, -0.2696773409843445, -0.16496431827545166, -0.17640504240989685, -0.2788917124271393, 0.2515963613986969, -0.12613274157047272, -0.115178681910038, 0.2691569924354553, -0.15856274962425232, -0.15765182673931122, 0.32851508259773254, 0.18296238780021667, -0.23747313022613525, 0.023968620225787163], [-0.5246292352676392, 0.21218116581439972, 0.08442261070013046, 0.1425360143184662, -0.011829993687570095, 0.33434927463531494, 0.09767273813486099, -0.1218709945678711, 0.04183095693588257, -0.23395487666130066, -0.4369102716445923, -0.03017984889447689, -0.4135552942752838, 0.056291405111551285, -0.2410053014755249], [-0.13679108023643494, 0.4038628935813904, -0.23445071280002594, 0.36886096000671387, -0.23448921740055084, 0.3444541096687317, -0.014802488498389721, 0.010064521804451942, 0.08770401775836945, -0.06855031847953796, 0.23369751870632172, -0.33795610070228577, -0.06308330595493317, 0.1792895793914795, -0.15909594297409058], [0.5137923955917358, 0.4732919931411743, 0.021821433678269386, -0.07128848880529404, -0.32232609391212463, -0.21070322394371033, -0.1536882221698761, 0.19576264917850494, 0.2515869140625, -0.07053063809871674, 0.24316321313381195, -0.06857872754335403, -0.27517053484916687, 0.46913015842437744, -0.06777065992355347], [-0.09677835553884506, 0.0653514713048935, -0.05709938332438469, 0.20322750508785248, 0.11169693619012833, 0.20578476786613464, -0.060154084116220474, 0.20596086978912354, -0.0689738541841507, 0.4432547688484192, 0.16430076956748962, 0.14706753194332123, -0.2351464480161667, 0.014107935130596161, 0.0846681147813797], [-0.04235534369945526, 0.07871456444263458, -0.2033398449420929, 0.19384868443012238, 0.1300424188375473, -0.22603239119052887, -0.13039986789226532, -0.03662492707371712, -0.29005166888237, 0.07742179930210114, 0.15830183029174805, 0.1601460576057434, 0.12366504222154617, -0.24032722413539886, -0.12881414592266083], [0.6771885752677917, 0.19473856687545776, 0.034440942108631134, 0.3055357336997986, 0.307115375995636, -0.10889606922864914, -0.10320346802473068, 0.02298855409026146, -0.059142470359802246, -0.30522286891937256, -0.20231260359287262, -0.17166189849376678, 0.16242627799510956, -0.39765775203704834, -0.05849219486117363], [0.13059353828430176, -0.12190825492143631, 0.07897522300481796, -0.2503218650817871, 0.31890180706977844, 0.29686465859413147, 0.1792883276939392, 0.13522891700267792, -0.31487154960632324, 0.00497657572850585, -0.10485176742076874, 0.07153471559286118, -0.3753187358379364, -0.5276056528091431, 0.062035564333200455], [-0.49555885791778564, 0.16961701214313507, 0.0982016772031784, 0.04822444170713425, 0.13308939337730408, 0.2386137843132019, 0.09019192308187485, 0.36726951599121094, -0.25194251537323, 0.13752381503582, 0.18744683265686035, -0.44601812958717346, -0.3367682993412018, -0.23515665531158447, 0.34904471039772034], [0.13111722469329834, 0.40956106781959534, 0.325072705745697, -0.15559042990207672, -0.058175571262836456, -0.5722482204437256, 0.1125885546207428, 0.012603719718754292, 0.35646000504493713, 0.27587994933128357, -0.06987620890140533, -0.24024730920791626, 0.5187731385231018, -0.12068767100572586, 0.29720577597618103], [0.05639749765396118, 0.35816311836242676, 0.056436918675899506, 0.09825728833675385, 0.3011784255504608, 0.08231230080127716, 0.06768683344125748, 0.0753464326262474, -0.21642819046974182, 0.4539473354816437, 0.12565961480140686, 0.05661720409989357, 0.025387128815054893, 0.4882625639438629, 0.010982452891767025], [0.27921098470687866, -0.0649678185582161, 0.22085662186145782, -0.18264524638652802, -0.3198062777519226, 0.2531062066555023, 0.03778182342648506, -0.01111326552927494, -0.08105635643005371, 0.3068380355834961, 0.4467581510543823, -0.25074225664138794, -0.8045439720153809, 0.10015746206045151, 0.09650100022554398], [-0.18076667189598083, 0.7636170387268066, -0.12661892175674438, 0.019670089706778526, 0.3140435814857483, 0.18687105178833008, 0.07741571217775345, 0.0709407851099968, -0.21139800548553467, -0.07976783812046051, 0.2200711965560913, -0.3353133499622345, -0.1785537749528885, 0.15222713351249695, -0.2492876648902893], [0.041079360991716385, -0.3652665913105011, 0.04218697547912598, 0.05879742279648781, -0.1372479498386383, 0.263058602809906, -0.12939763069152832, -0.03150705248117447, 0.3065619170665741, -0.06606696546077728, 0.15094567835330963, -0.10954295843839645, 0.3990250825881958, -0.11346187442541122, -0.448669970035553], [-0.005485976114869118, -0.2907967269420624, 0.07892735302448273, 0.11236652731895447, -0.0007331778760999441, -0.05502494424581528, -0.20000918209552765, -0.1052081361413002, 0.09580300748348236, 0.47988075017929077, 0.06223095953464508, -0.02403944358229637, 0.18675075471401215, 0.015462106093764305, -0.15560798346996307], [-0.10929583758115768, 0.03633853420615196, 0.0009246600093320012, 0.13930049538612366, -0.08918784558773041, 0.10294798761606216, 0.02684807777404785, 0.23346775770187378, -0.15480588376522064, -0.5006998181343079, 0.0048708319664001465, 0.23538605868816376, 0.15054002404212952, 0.1689756065607071, 0.11259336769580841], [-0.10920678824186325, 0.04744594171643257, 0.025077465921640396, 0.052608806639909744, 0.17433099448680878, 0.1569613367319107, -0.06469077616930008, 0.09680065512657166, -0.2363108992576599, 0.39349600672721863, -0.32781606912612915, 0.05104256793856621, -0.07311093062162399, 0.15206804871559143, -0.15455377101898193], [-0.22066675126552582, 0.12619084119796753, 0.08116701245307922, -0.025744358077645302, -0.17176488041877747, 0.09675931185483932, 0.2685615122318268, 0.32010844349861145, -0.14137297868728638, -0.2566291391849518, 0.1284710168838501, 0.41529297828674316, 0.12792038917541504, 0.13182887434959412, -0.23815470933914185], [0.543075442314148, 0.306063175201416, 0.03737400472164154, 0.06569825112819672, 0.09545817226171494, 0.07972041517496109, 0.22346337139606476, 0.0892503410577774, -0.07548046112060547, 0.0697525218129158, 0.24561600387096405, -0.286796510219574, -0.017828932031989098, 0.5862537026405334, -0.14279234409332275], [0.06927219033241272, -0.30314040184020996, -0.1165897399187088, -0.13588720560073853, 0.07216701656579971, -0.3938162922859192, -0.08415258675813675, -0.13521338999271393, -0.10850746929645538, -0.3427582383155823, -0.029406819492578506, 0.18382664024829865, 0.14205288887023926, 0.6428430676460266, 0.05148233100771904], [0.31661728024482727, 0.20234110951423645, -0.2806360125541687, -0.14411026239395142, 0.2733345031738281, -0.3630872964859009, 0.007277469616383314, -0.024442031979560852, -0.34410104155540466, 0.2850702702999115, 0.2522391080856323, -0.28056809306144714, -0.3632276654243469, 0.5377442836761475, -0.2540287673473358], [0.4869091808795929, 0.12989024817943573, -0.2349802553653717, -0.2431265264749527, -0.5695193409919739, 0.06306605041027069, -0.18125492334365845, -0.05285750329494476, -0.27183324098587036, 0.020024223253130913, -0.17480361461639404, 0.2567789554595947, 0.01685974933207035, -0.9317710399627686, -0.11420238763093948], [-0.3231116831302643, 0.1798049360513687, -0.19943907856941223, 0.12436061352491379, -0.2949010729789734, 0.06533754616975784, -0.22393493354320526, 0.08634055405855179, 0.18187426030635834, 0.39944106340408325, -0.028377559036016464, 0.3186268210411072, -0.09897860884666443, 0.10066679120063782, -0.01355721428990364], [0.03717443719506264, -0.16469992697238922, -0.16096486151218414, 0.16728340089321136, 0.26939547061920166, 0.28591686487197876, -0.1494249701499939, -0.04565363749861717, 0.24736160039901733, 0.0395413413643837, -0.23837029933929443, -0.20234835147857666, 0.4493206739425659, -0.025642283260822296, 0.21124489605426788], [0.4035494923591614, -0.26226410269737244, 0.21042704582214355, 0.2361481487751007, 0.11907834559679031, -0.00019911974959541112, 0.16455750167369843, -0.13910368084907532, 0.11168332397937775, 0.02140158973634243, 0.38194286823272705, -0.17033013701438904, 0.04864967241883278, -0.015305455774068832, -0.15894940495491028], [0.5133218765258789, -0.062111034989356995, -0.24770459532737732, 0.19869987666606903, 0.536495566368103, 0.022133251652121544, -0.15330545604228973, 0.17009130120277405, 0.11744275689125061, 0.08048536628484726, 0.002099816920235753, -0.21035653352737427, 0.37389737367630005, 0.12024376541376114, 0.21885903179645538], [0.33624306321144104, -0.2614874541759491, -0.20959752798080444, -0.11710008978843689, 0.12185017764568329, 0.1131172925233841, -0.171936497092247, -0.1725277602672577, 0.22352616488933563, -0.168275848031044, 0.004576857667416334, 0.2684209644794464, 0.12758445739746094, 0.07769245654344559, -0.01724320277571678], [0.010038181208074093, 0.35185620188713074, 0.08890187740325928, 0.1267566829919815, -0.08832447230815887, 0.21997947990894318, 0.22137746214866638, -0.1978428214788437, -0.019872667267918587, -0.1338571310043335, 0.4561222195625305, 0.1988711953163147, 0.08100036531686783, 0.19555331766605377, -0.03045220486819744], [0.4539753198623657, 0.2785402536392212, 0.07838916033506393, -0.05293574184179306, 0.13415129482746124, -0.23917865753173828, 0.04813627153635025, -0.019747180864214897, 0.3886723220348358, 0.31422004103660583, 0.251081258058548, 0.03198743984103203, 0.2243344485759735, 0.32790783047676086, -0.16190238296985626], [-0.11749107390642166, -0.18387161195278168, -0.2672635316848755, -0.06252170354127884, 0.10843627154827118, -0.03126971796154976, -0.35799676179885864, 0.15697462856769562, -0.25365588068962097, -0.05129695683717728, -0.0449187196791172, -0.02196826972067356, 0.2409912794828415, -0.23002101480960846, -0.10286109149456024], [-0.23819637298583984, -0.25310570001602173, 0.1575053185224533, 0.1883114129304886, -0.04010973498225212, 0.11257275193929672, 0.24933770298957825, 0.20654365420341492, 0.07164578139781952, -0.12974661588668823, -0.1257002353668213, 0.30638962984085083, -0.09183505177497864, -0.2839988172054291, -0.1096082553267479], [-0.21374544501304626, -0.3635648488998413, 0.13626980781555176, -0.23783323168754578, 0.03367894887924194, -0.1023062914609909, -0.453395813703537, -0.007601094897836447, 0.45091938972473145, -0.31515252590179443, -0.43800249695777893, 0.06372129172086716, 0.045196764171123505, 0.03721672296524048, -0.18700259923934937], [-0.2589032053947449, -0.6441938281059265, -0.03592165932059288, -0.29133477807044983, -0.14230221509933472, 0.34204280376434326, -0.06539282202720642, 0.08231925964355469, 0.25428318977355957, 0.33649128675460815, -0.020537596195936203, 0.31403660774230957, 0.2532116174697876, -0.14033962786197662, 0.004178434610366821], [-0.23685050010681152, -0.33258432149887085, -0.07340332120656967, -0.21321243047714233, 0.05854030326008797, -0.5024973750114441, 0.03781126067042351, -0.44302603602409363, -0.11546341329813004, 0.07846854627132416, 0.20007412135601044, -0.1684858202934265, -0.3827202618122101, 0.2600681483745575, 0.11711329221725464], [-0.35655510425567627, 0.5454538464546204, 0.06524044275283813, 0.3079639673233032, 0.202383354306221, -0.16612504422664642, 0.0195037629455328, 0.25528648495674133, 0.059952497482299805, 0.36868810653686523, -0.09644919633865356, 0.010592775419354439, 0.23428013920783997, -0.3762141764163971, -0.06408241391181946], [0.19413422048091888, 0.06403128057718277, -0.20047162473201752, -0.2425812929868698, -0.044104717671871185, -0.25785738229751587, 0.18228046596050262, 0.2828221917152405, 0.1808728128671646, -0.062052544206380844, 0.10607586801052094, -0.19811037182807922, -0.3839782178401947, 0.3267666697502136, -0.034924935549497604], [-0.4263242185115814, -0.5062278509140015, 0.21929419040679932, -0.3058417737483978, 0.21245990693569183, -0.10324056446552277, 0.05219833552837372, 0.13771478831768036, 0.2644273638725281, -0.19023166596889496, -0.2198917120695114, -0.046759720891714096, 0.06598873436450958, -0.003261960344389081, -0.002665639389306307], [0.32557615637779236, 0.48158472776412964, 0.34223514795303345, 0.13911694288253784, -0.17068827152252197, 0.012754282914102077, -0.13551385700702667, -0.1546429693698883, -0.21875008940696716, -0.38521766662597656, -0.12446422874927521, 0.21957938373088837, -0.21833865344524384, -0.2783154845237732, 0.15485303103923798], [-0.0058861649595201015, 0.16974948346614838, 0.5402690172195435, 0.2898854911327362, 0.14030873775482178, 0.3783372938632965, 0.05479356646537781, 0.1548609882593155, -0.07786795496940613, 0.20719526708126068, -0.07745684683322906, 0.10122466087341309, 0.003617642680183053, 0.611727774143219, 0.22085775434970856], [-0.2714567184448242, -0.14043550193309784, -0.03494933620095253, 0.0977434366941452, 0.2085425853729248, 0.01018166821449995, -0.2802704870700836, -0.047288548201322556, -0.08575864881277084, 0.017553171142935753, 0.21124684810638428, 0.1448042243719101, -0.09520243108272552, -0.3515365719795227, -0.33032992482185364], [0.5037054419517517, -0.04075266793370247, 0.08045743405818939, 0.0031871628016233444, 0.20808421075344086, 0.14594222605228424, 0.2472684383392334, 0.11081746965646744, -0.04878418520092964, 0.4379189908504486, 0.3317759037017822, 0.2854924499988556, 0.18291598558425903, 0.15689736604690552, -0.08921439945697784], [0.323988676071167, 0.12904155254364014, -0.09333071857690811, -0.020417775958776474, -0.08420062810182571, 0.4492054581642151, 0.10149640589952469, 0.03935549780726433, -0.02516687661409378, -0.0733887106180191, -0.1212121993303299, 0.013373414054512978, 0.14627870917320251, 0.0400911420583725, 0.06319745630025864], [0.4318036735057831, -0.17657430469989777, -0.12157262861728668, 0.08161090314388275, -0.1855674684047699, -0.0743829756975174, 0.06743965297937393, -0.3223074674606323, 0.05111498385667801, 0.34445539116859436, 0.25903356075286865, -0.0625251904129982, -0.08116218447685242, -0.5168087482452393, 0.007994256913661957], [-0.2561797499656677, 0.05502130091190338, 0.03211139515042305, 0.009767726995050907, -0.04524808004498482, -0.03755434975028038, -0.07938060909509659, -0.23701606690883636, -0.10885461419820786, 0.4645237326622009, 0.21269656717777252, -0.069442518055439, -0.2476857304573059, 0.13675391674041748, -0.09346747398376465], [-0.2094016671180725, 0.17109520733356476, 0.14572182297706604, -0.2095388025045395, 0.14725379645824432, -0.1166040301322937, 0.2222169190645218, 0.008822805248200893, 0.24153436720371246, -0.10680477321147919, -0.026824310421943665, -0.23103633522987366, 0.9054084420204163, -0.19856253266334534, -0.002198526868596673], [0.14232419431209564, 0.040646519511938095, 0.19343969225883484, -0.07747941464185715, -0.20648892223834991, 0.3521742820739746, -0.16760773956775665, 0.047584570944309235, -0.10902539640665054, 0.309360146522522, 0.02245144732296467, 0.17950530350208282, -0.0912429690361023, -0.20961488783359528, 0.242678701877594], [0.1326155960559845, -0.34125369787216187, 0.03584452345967293, -0.1898099184036255, 0.03164127096533775, -0.06948854774236679, 0.28167852759361267, -0.21856611967086792, -0.19115695357322693, 0.21134713292121887, -0.2555188536643982, 0.2551235556602478, -0.11658984422683716, -0.1671983152627945, 0.07959511876106262], [-0.01808648556470871, 0.03848185017704964, -0.08748077601194382, 0.027159688994288445, 0.005141539499163628, -0.12518680095672607, -0.10282711684703827, -0.25498807430267334, 0.3280588686466217, 0.3228561282157898, 0.010827655903995037, 0.018143920227885246, 0.20045511424541473, 0.15652672946453094, 0.07418211549520493], [-0.254808634519577, 0.15458883345127106, 0.10490071773529053, 0.0908912643790245, 0.04538656398653984, 0.17849694192409515, -0.29030025005340576, -0.25598376989364624, -0.20971396565437317, -0.14098605513572693, 0.20518100261688232, 0.16078349947929382, 0.11318389326334, 0.276154488325119, 0.1460396945476532], [0.4571816325187683, 0.20667587220668793, 0.09404652565717697, -0.03344273939728737, 0.5606247186660767, -0.04339548572897911, 0.314589262008667, -0.10450300574302673, -0.19853682816028595, 0.31910163164138794, 0.30936112999916077, 0.11089806258678436, -0.29660269618034363, 0.14844083786010742, 0.018359389156103134], [0.3223721385002136, -0.09096522629261017, 0.3503406047821045, -0.039746906608343124, -0.21761420369148254, 0.42260369658470154, -0.26367440819740295, -0.13810759782791138, -0.06842365115880966, -0.03134550526738167, 0.5596529245376587, -0.04660734906792641, -0.087424136698246, -0.11721290647983551, 0.3294025659561157], [-0.08490319550037384, 0.014622424729168415, -0.150345116853714, 0.05440489575266838, 0.013152909465134144, -0.019411316141486168, 0.05416145548224449, 0.07322648167610168, 0.5781217217445374, 0.4282378852367401, 0.03853246197104454, -0.06631515175104141, 0.7686948180198669, 0.562631368637085, -0.22508321702480316], [0.05795225128531456, 0.05936160683631897, -0.019029615446925163, -0.572831392288208, 0.1712505966424942, 0.14785711467266083, 0.057858943939208984, 0.15486101806163788, 0.29185351729393005, 0.22991569340229034, -0.019339008256793022, -0.347064346075058, 0.9609071016311646, 0.3006240129470825, -0.22020232677459717], [0.19876903295516968, 0.07748514413833618, 0.21734514832496643, -0.007991836406290531, -0.04005558043718338, -0.10388557612895966, 0.25400930643081665, -0.14300858974456787, -0.25044476985931396, 0.17584705352783203, -0.443878173828125, 0.052903786301612854, -0.05732820928096771, 0.20947642624378204, -0.040556419640779495], [0.30767932534217834, 0.34231022000312805, -0.3524954319000244, 0.28564581274986267, -0.3680144250392914, 0.2129800170660019, 0.21180970966815948, 0.12492873519659042, -0.1395619958639145, 0.05980658903717995, 0.016156718134880066, 0.02155296690762043, 0.007995769381523132, -0.1655457317829132, -0.05054730921983719], [-0.2614542245864868, 0.2564934492111206, 0.06668449193239212, 0.1604648232460022, -0.312642365694046, 0.1099933385848999, -0.1850285828113556, 0.05579697713255882, 0.20229890942573547, 0.3589174449443817, -0.007404525764286518, -0.10044119507074356, -0.4661850929260254, 0.6290938258171082, 0.2871685326099396], [0.14129070937633514, 0.25528547167778015, 0.12275494635105133, 0.10845522582530975, -0.3099413514137268, -0.22630713880062103, 0.038430724292993546, 0.13614073395729065, 0.20877128839492798, 0.5377554297447205, -0.02905145101249218, 0.2444857805967331, -0.0656956359744072, -0.09486659616231918, 0.23334579169750214], [0.020830929279327393, 0.06261701136827469, -0.1415734738111496, 0.0005071868072263896, -0.14247512817382812, 0.12691806256771088, 0.03863730654120445, -0.06336475908756256, 0.037649061530828476, -0.5136629343032837, 0.2603241801261902, -0.011444644071161747, 0.19597968459129333, 0.03693176805973053, 0.15448859333992004], [0.027975531294941902, 0.10461261123418808, 0.05749646946787834, -0.004862554837018251, 0.4592709541320801, 0.013645714148879051, -0.012361602857708931, 0.01222235057502985, -0.16920773684978485, -0.1588180512189865, -0.10952798277139664, -0.10435013473033905, 0.2150031328201294, 0.2563883662223816, 0.27660050988197327], [0.24119263887405396, 0.1906057447195053, 0.04204694554209709, -0.16384108364582062, 0.25382891297340393, -0.4759802222251892, -0.1622391790151596, -0.3434062600135803, -0.12180368602275848, -0.49895405769348145, 0.16339713335037231, 0.4748210906982422, 0.11928236484527588, -0.19965939223766327, -0.2624056935310364], [0.4023434817790985, 0.20261958241462708, -0.06627608835697174, 0.1784481555223465, -0.20144842565059662, 0.3153889775276184, 0.32242634892463684, 0.1382244974374771, -0.19247977435588837, 0.03229032829403877, -0.30683958530426025, 0.1551501452922821, -0.23317605257034302, 0.024490470066666603, -0.14504113793373108], [-0.12948471307754517, -0.013968905434012413, -0.07102429121732712, -0.021036943420767784, -0.06086358428001404, -0.3019130229949951, -0.1950056552886963, 0.006451385095715523, -0.13858890533447266, 0.1485971361398697, 0.5149364471435547, -0.2032153457403183, 0.4772363007068634, -0.1481138914823532, 0.03273003175854683], [0.616551399230957, 0.016513081267476082, -0.16891197860240936, 0.2898130416870117, 0.010992027819156647, -0.2350885272026062, -0.1396605223417282, -0.1055002510547638, 0.21921758353710175, 0.11394601315259933, -0.3714902698993683, -0.19488021731376648, -0.9589424133300781, -0.25542864203453064, 0.1915057748556137], [-0.29072344303131104, -0.31143778562545776, -0.03225276991724968, -0.16725870966911316, -0.1560397893190384, -0.22060170769691467, -0.06352416425943375, -0.21420517563819885, 0.1615999937057495, 0.4902137517929077, -0.01943962089717388, -0.14474210143089294, 0.0017223191680386662, 0.5091290473937988, -0.06506950408220291], [0.020208992063999176, 0.22578351199626923, -0.008221914991736412, -0.047461822628974915, -0.1093638688325882, -0.8436846733093262, 0.042994651943445206, -0.14832811057567596, 0.2628759443759918, 0.08426181972026825, 0.17732083797454834, -0.5496329665184021, 0.4509961009025574, 0.37265104055404663, -0.2339184284210205], [-0.53667813539505, 0.02757086604833603, 0.01134474202990532, -0.29635363817214966, -0.3745357394218445, -0.013512203469872475, -0.028868673369288445, 0.11881464719772339, -0.20640642940998077, 0.05233828350901604, -0.22500064969062805, 0.262258380651474, -0.21103689074516296, 0.5170930624008179, 0.1722268909215927], [0.23776637017726898, 0.08134160190820694, 0.12777143716812134, -0.0748516321182251, 0.39607858657836914, -0.3233174681663513, 0.15608438849449158, 0.07542689144611359, -0.3103240728378296, 0.3446553945541382, -0.34759122133255005, 0.022638749331235886, -0.16514180600643158, -0.2360994666814804, -0.11607412993907928], [-0.40045204758644104, 0.1762738972902298, -0.25293058156967163, 0.10165934264659882, -0.08027304708957672, 0.1409127116203308, 0.017199575901031494, 0.3054543733596802, -0.0550135001540184, 0.2186174988746643, 0.06941957771778107, 0.09624892473220825, -0.07089632749557495, -0.8697755336761475, 0.04788298159837723], [-0.22353936731815338, 0.18679983913898468, -0.14530591666698456, 0.045462314039468765, -0.08962088823318481, 0.04814974591135979, 0.37116125226020813, 0.13349050283432007, 0.29986482858657837, -0.20708352327346802, -0.5243663787841797, 0.04580168053507805, 0.09852684289216995, -0.3069619834423065, -0.009905018843710423], [-0.36808842420578003, -0.09915725886821747, -0.12987622618675232, 0.1273900717496872, -0.17311465740203857, -0.2701556384563446, 0.17532239854335785, -0.06048054248094559, -0.3409584164619446, -0.20821020007133484, 0.06469524651765823, -0.23932060599327087, -0.25354230403900146, -0.6199976801872253, 0.1108173280954361], [-0.4066309630870819, 0.33327025175094604, -0.3223635256290436, 0.0014805094106122851, 0.4961142838001251, 0.1499389410018921, 0.09343404322862625, -0.22665873169898987, 0.21765859425067902, -0.23018532991409302, 0.027600428089499474, 0.2795920968055725, 0.21918059885501862, 0.13609008491039276, -0.2521248757839203], [-0.02013956569135189, -0.051812462508678436, -0.3426021933555603, -0.02191997691988945, -0.4756871163845062, 0.010307646356523037, -0.19609186053276062, 0.2072737216949463, 0.01950012519955635, 0.2503505051136017, -0.051236897706985474, 0.0883990153670311, 0.7730156183242798, -0.09114869683980942, -0.20779277384281158], [-0.20144616067409515, 0.008779800496995449, 0.17890900373458862, -0.15011531114578247, 0.3897870182991028, 0.17309007048606873, 0.18845118582248688, 0.19519400596618652, -0.15215234458446503, 0.40668562054634094, -0.24674837291240692, 0.15672513842582703, 0.07388886064291, 0.35373714566230774, 0.15297091007232666], [0.040944647043943405, -0.08671338856220245, -0.06334193050861359, 0.04521928355097771, 0.3370530605316162, 0.38625070452690125, 0.33443623781204224, -0.03520681709051132, -0.07983096688985825, 0.18575717508792877, 0.30823585391044617, 0.17701977491378784, -0.23042841255664825, 0.00837906263768673, -0.1384982466697693], [-0.08423098921775818, 0.3592222034931183, 0.0747588574886322, -0.18694250285625458, 0.30883151292800903, -0.12383785098791122, 0.1274063140153885, 0.016140956431627274, -0.35467401146888733, 0.12252300977706909, -0.14290274679660797, -0.07865788787603378, -0.2560359835624695, 0.21405769884586334, 0.023315157741308212], [0.21231551468372345, -0.1420048028230667, -0.09111455082893372, 0.18920943140983582, 0.3960568308830261, 0.271615594625473, 0.10861246287822723, -0.16160376369953156, -0.2282240390777588, 0.13211755454540253, 0.14016219973564148, -0.07675585895776749, 0.7786239981651306, 0.00692612724378705, -0.13905069231987], [0.3583228886127472, -0.37490347027778625, 0.045044008642435074, 0.007258889731019735, 0.07991812378168106, 0.30117562413215637, 0.16975918412208557, 0.12877213954925537, 0.009903538972139359, -0.20697085559368134, 0.35890117287635803, 0.13070711493492126, -0.08036240190267563, -0.07542278617620468, -0.06448015570640564], [-0.30838075280189514, -0.2395443171262741, 0.08220177888870239, -0.06595083326101303, 0.141188845038414, 0.25052428245544434, -0.1679103970527649, -0.27827298641204834, -0.11348487436771393, -0.14387759566307068, 0.05480981990695, 0.20253650844097137, 0.3528660535812378, -0.39696168899536133, 0.08210045099258423], [-0.023530948907136917, 0.2558102309703827, 0.277829647064209, -0.16566041111946106, 0.03706005588173866, -0.06901832669973373, -0.38595685362815857, 0.1991988718509674, -0.27202075719833374, 0.30663764476776123, 0.09338218718767166, -0.022623220458626747, -0.1523321568965912, 0.08484670519828796, 0.03806488960981369], [0.3081492483615875, -0.056788355112075806, -0.3144077658653259, -0.11160127818584442, -0.4454086124897003, 0.3778509199619293, -0.16745415329933167, -0.08440873771905899, 0.08901819586753845, 0.024433039128780365, -0.20698146522045135, 0.10467340052127838, 0.10031651705503464, 0.19126619398593903, 0.13537222146987915], [0.12248586863279343, -0.2946527600288391, 0.005295995622873306, -0.27168548107147217, -0.16386467218399048, -0.8101428747177124, -0.3615410327911377, -0.2767667770385742, -0.3076854348182678, 0.3088153600692749, -0.18506066501140594, -0.10574229806661606, -0.2641887366771698, -0.2550203204154968, -0.30572614073753357], [0.03966771811246872, -0.43798238039016724, 0.05616722255945206, -0.2977844774723053, -0.09905842691659927, 0.034366294741630554, 0.14912937581539154, -0.10181421786546707, 0.22544194757938385, 0.2878638803958893, -0.08568485826253891, 0.015746258199214935, 0.39789634943008423, 0.5957357287406921, 0.07719190418720245], [0.0444774366915226, 0.17759039998054504, 0.07399662584066391, -0.0925917997956276, 0.23126469552516937, -0.2476833611726761, -0.20041105151176453, 0.20677751302719116, 0.12155991047620773, -0.28734660148620605, -0.24535851180553436, 0.08051328361034393, 0.238642156124115, -0.24130916595458984, 0.16836373507976532], [-0.4916708469390869, -0.018625561147928238, 0.029741356149315834, -0.16046786308288574, 0.23503617942333221, 0.3414897918701172, 0.14058254659175873, -0.1044568121433258, -0.17533545196056366, -0.10892795771360397, 0.2502891719341278, -0.14946037530899048, -0.42912590503692627, 0.13312609493732452, 0.08347024768590927], [-0.6654804348945618, -0.33780747652053833, -0.35780707001686096, -0.1836089789867401, -0.02031548321247101, -0.006997365970164537, -0.05319345369935036, 0.12301372736692429, 0.3235151171684265, -0.1297096312046051, -0.14135287702083588, -0.05902935564517975, -0.4216356873512268, -0.04361480847001076, 0.24595306813716888], [0.4513239562511444, -0.27306845784187317, 0.36732470989227295, -0.13080765306949615, -0.3886912763118744, -0.2604926824569702, -0.11365733295679092, -0.05440240353345871, 0.10790611803531647, -0.07319359481334686, 0.10189606994390488, -0.20080885291099548, 0.3659404516220093, -0.10128876566886902, -0.24333852529525757], [0.32463330030441284, -0.10193780809640884, 0.0530506931245327, 0.24453844130039215, -0.09619944542646408, 0.22395041584968567, 0.07322434335947037, -0.0019605166744440794, 0.47204601764678955, 0.42600521445274353, -0.10332053899765015, 0.04007166996598244, 0.11634927242994308, 0.5842148065567017, -0.15287604928016663], [-0.08185536414384842, 0.7021684646606445, -0.12929731607437134, 0.26309719681739807, 0.01330624334514141, -0.1700834482908249, 0.09713222831487656, -0.3552136719226837, 0.13854633271694183, -0.11844173818826675, 0.16213186085224152, 0.14117509126663208, -0.38668954372406006, 0.20222251117229462, 0.16337770223617554], [0.12310554087162018, 0.08796627074480057, -0.07684466987848282, -0.1091628149151802, 0.27798423171043396, 0.05352780967950821, 0.015358863398432732, -0.004255435895174742, 0.3966112732887268, 0.46905556321144104, 0.06958696246147156, 0.2202156037092209, -0.2046445906162262, 0.18773426115512848, 0.07250631600618362], [0.16360655426979065, 0.3944048285484314, -0.07395564764738083, 0.09147424250841141, 0.05171263962984085, -0.02682923711836338, 0.08604751527309418, 0.3213560879230499, 0.12193509936332703, -0.25715452432632446, 0.36075589060783386, -0.009603396989405155, 0.3353084921836853, -0.5529216527938843, -0.25204259157180786], [-0.03373723104596138, 0.17107203602790833, 0.16999998688697815, -0.02816522866487503, -0.15174943208694458, -0.14926044642925262, -0.1650635153055191, 0.06197018548846245, -0.3310263156890869, -0.22508877515792847, -0.3056105971336365, -0.05448176711797714, -0.055934738367795944, 0.32389146089553833, -0.18155324459075928], [-0.07807806134223938, -0.48855170607566833, 0.34175410866737366, -0.04610687494277954, 0.1436951458454132, 0.3481529653072357, 0.20236459374427795, -0.20691978931427002, -0.217784583568573, 0.01752931997179985, -0.44399726390838623, 0.024063805118203163, -0.015440312214195728, -0.0645890161395073, -0.042251747101545334], [0.13464026153087616, 0.09331618249416351, 0.18373586237430573, -0.26223698258399963, -0.22549551725387573, 0.27019158005714417, 0.27287209033966064, -0.10814464092254639, 0.4529503285884857, -0.18031394481658936, -0.19392536580562592, 0.03508516773581505, -0.3774515390396118, 0.011971483007073402, 0.1708182543516159], [0.2583889961242676, 0.21225304901599884, 0.26010096073150635, 0.07700017839670181, -0.09176743030548096, -0.23960940539836884, -0.09165718406438828, -0.08927713334560394, -0.030136551707983017, 0.38311463594436646, -0.008058429695665836, 0.19604985415935516, 0.07996492832899094, 0.3645871579647064, -0.137470081448555], [-0.07978834956884384, -0.23456831276416779, 0.19218124449253082, -0.25194767117500305, -0.021634666249155998, -0.20949667692184448, -0.537822425365448, 0.27235618233680725, 0.10777122527360916, 0.06758108735084534, -0.08692780137062073, 0.14504560828208923, -0.5090066194534302, 0.4392946660518646, -0.20100092887878418], [-0.10581082850694656, 0.01973644830286503, 0.06220824643969536, -0.26521721482276917, -0.18880870938301086, 0.4015616178512573, 0.2673073410987854, 0.1696227639913559, -0.20240053534507751, -0.14834758639335632, -0.14966470003128052, -0.022419672459363937, -0.22333459556102753, -0.023918285965919495, 0.018401356413960457], [-0.25723785161972046, 0.1395135223865509, 0.19779953360557556, 0.24728909134864807, 0.46004924178123474, 0.2670731842517853, 0.2526892125606537, 0.1314765363931656, -0.23481862246990204, 0.18667207658290863, 0.018570275977253914, 0.09817077964544296, 0.177216038107872, 0.4513596296310425, 0.05944947898387909], [0.2757129967212677, 0.32533395290374756, 0.21070842444896698, 0.1788768321275711, -0.15822061896324158, 0.4944087564945221, 0.10906601697206497, -0.08312620967626572, 0.16493156552314758, -0.3197610378265381, -0.03583264723420143, -0.03807641938328743, 0.4263988435268402, -0.09440530836582184, 0.07561176270246506], [0.003966774791479111, -0.3733679950237274, 0.25789231061935425, -0.17736618220806122, 0.029210513457655907, 0.12515394389629364, 0.013718833215534687, 0.07938909530639648, -0.018306385725736618, 0.304801881313324, -0.15725933015346527, -0.04484906047582626, -0.18679876625537872, 0.6084403395652771, -0.2375914305448532], [0.046995922923088074, 0.372343510389328, -0.015092558227479458, -0.001412822981365025, -0.3612528145313263, -0.25866225361824036, 0.21901272237300873, 0.1349543035030365, -0.3415074050426483, 0.0007088565034791827, -0.24737471342086792, -0.011137029156088829, -0.39527371525764465, 0.21673575043678284, -0.11551268398761749], [-0.5272364020347595, -0.006288665812462568, 0.029189135879278183, 0.04787365719676018, 0.645243763923645, 0.08599360287189484, 0.03689394146203995, -0.22321626543998718, 0.13782250881195068, -0.06431172788143158, 0.2398003488779068, -0.08328845351934433, -0.3579934537410736, 0.2817019522190094, -0.07402476668357849], [-0.14143097400665283, 0.10755395144224167, 0.01520847249776125, 0.07961997389793396, -0.12062333524227142, 0.1964103728532791, -0.06794282048940659, 0.02305961400270462, -0.06848862767219543, 0.43606606125831604, -0.18564222753047943, 0.32561102509498596, 0.2874038815498352, 0.0054846638813614845, -0.04507756605744362], [0.22321170568466187, 0.2465927004814148, 0.19534772634506226, -0.012471308931708336, 0.26938414573669434, 0.3321529030799866, 0.15514184534549713, 0.11871480941772461, 0.049219902604818344, -0.01777338609099388, -0.243543803691864, 0.03312773257493973, -0.020502237603068352, -0.4333402216434479, -0.12058024108409882], [-0.5041374564170837, -0.2547917664051056, -0.23876503109931946, -0.05876421555876732, -0.34333816170692444, 0.16492803394794464, -0.28589940071105957, 0.03584671765565872, -0.27171480655670166, 0.053313612937927246, -0.11170386523008347, 0.18487922847270966, -0.059640489518642426, 0.24443145096302032, 0.030065635219216347], [-0.34054824709892273, 0.06639033555984497, -0.31265759468078613, 0.04919842630624771, 0.2642650902271271, -0.5720617175102234, 0.008565841242671013, 0.20220588147640228, -0.2911647856235504, -0.13698944449424744, -0.2902669310569763, 0.07360716164112091, -0.38354262709617615, -0.518764078617096, -0.01059937197715044], [-0.5140590667724609, -0.20831707119941711, -0.35810399055480957, 0.06450365483760834, -0.4373157024383545, -0.036560967564582825, -0.2936508357524872, -0.08412185311317444, -0.2730296552181244, 0.24111326038837433, -0.051214393228292465, 0.18032513558864594, -0.31089627742767334, 0.07848062366247177, -0.2657362222671509]], "features.0.bias": [0.21697945892810822, -0.17398831248283386, -0.13784222304821014, 0.15099851787090302, -0.045116160064935684, -0.21039243042469025, 0.3931993544101715, 0.08744849264621735, 0.40905526280403137, 0.22556346654891968, 0.16145241260528564, -0.02891998179256916, -0.11402153968811035, -0.13842971622943878, -0.30053433775901794, -0.20998893678188324, -0.4129036068916321, 0.16071034967899323, -0.08022014796733856, 0.1527612954378128, -0.5119669437408447, -0.13209882378578186, 0.16579265892505646, 0.07027976214885712, 0.015906689688563347, -0.057977162301540375, -0.19797252118587494, 0.27343830466270447, -0.004320564679801464, -0.14005166292190552, 0.12336098402738571, -0.23265786468982697, -0.18370090425014496, -0.36834394931793213, -0.04619614779949188, 0.1372174471616745, -0.2506149709224701, 0.6423577666282654, -0.036102112382650375, 0.242390975356102, -0.14617325365543365, 0.5527042150497437, 0.26489144563674927, -0.06708016991615295, -0.059118494391441345, 0.11134760826826096, 0.09538118541240692, 0.21914784610271454, 0.11613751947879791, 0.19497904181480408, -0.08916459232568741, 0.05020883306860924, 0.13537991046905518, -0.08853301405906677, -0.39911606907844543, -0.06626366823911667, -0.08772578835487366, -0.19446827471256256, -0.03210519626736641, 0.11366977542638779, -0.03910169005393982, 0.4806991219520569, -0.12386554479598999, 0.12309857457876205, -0.09826913475990295, -0.1511264145374298, 0.31470924615859985, -0.1809551864862442, 0.17305611073970795, -0.2989339828491211, 0.3083747327327728, -0.18678438663482666, 0.1041748970746994, -0.3559023141860962, -0.06804558634757996, 0.2785677909851074, 0.035617582499980927, -0.19228096306324005, -0.3324640989303589, 0.1084187775850296, 0.40323689579963684, 0.5389624834060669, 0.06486349552869797, -0.14915604889392853, -0.14740312099456787, -0.2739439904689789, 0.1038203313946724, -0.1369682252407074, -0.18055206537246704, -0.2758691608905792, -0.13207581639289856, -0.2687300145626068, 0.018084390088915825, 0.03312312066555023, -0.2157314568758011, -0.29861190915107727, 0.168737530708313, 0.5189012885093689, 0.2989619970321655, 0.27664077281951904, -0.15165120363235474, 0.04273594915866852, -0.19456849992275238, -0.24089427292346954, 0.2760086953639984, 0.019797513261437416, -0.2520216107368469, -0.11565553396940231, -0.44270026683807373, 0.18883413076400757, -0.3188915550708771, 0.08131007105112076, 0.7578915357589722, 0.1458478420972824, 0.03102187067270279, -0.402028888463974, -0.18776993453502655, 0.09145021438598633, 0.04403145611286163, 0.021036801859736443, -0.20021989941596985, 0.05560418590903282, -0.11473525315523148, -0.12322809547185898, 0.09825650602579117, 0.05263381078839302, -0.16087017953395844, -0.29936400055885315], "value_stream.0.weight": [[-0.13160429894924164, 0.021161464974284172, 0.014520511962473392, 0.005205234512686729, 0.6368657350540161, 0.24275191128253937, -0.24903738498687744, -0.010292325168848038, -0.05994391441345215, -0.024754691869020462, -0.03178372234106064, -0.1398661583662033, -0.23748598992824554, -0.09472344815731049, 0.10510946810245514, 0.31021660566329956, 0.23876123130321503, 0.1959497481584549, 0.164468914270401, -0.1863487809896469, 0.08714596927165985, -0.1704282909631729, 0.08524151146411896, -0.5314748883247375, -0.13764342665672302, -0.11872035264968872, 0.34447187185287476, -0.49036625027656555, -0.23670676350593567, 0.4219704866409302, 0.13097138702869415, 0.21748852729797363, 0.012208688072860241, 0.2210819274187088, -0.20864666998386383, 0.3279956877231598, 0.3245024085044861, -0.3278868794441223, 0.3051607012748718, -0.029257487505674362, 0.3358827531337738, -0.021765191107988358, -0.43657514452934265, 0.12095444649457932, -0.08860412985086441, 0.17094020545482635, -0.07587582617998123, 0.17546707391738892, -0.2520099878311157, -0.19651803374290466, 0.24485373497009277, -0.45694699883461, -0.177399680018425, -0.5062357187271118, 0.18544088304042816, 0.05958319827914238, 0.4914685785770416, 0.15028038620948792, -0.07304368168115616, -0.35866856575012207, 0.32175204157829285, -0.13864292204380035, 0.36805644631385803, -0.15728914737701416, 0.14980176091194153, 0.25054800510406494, 0.05724984034895897, 0.08915668725967407, -0.06758047640323639, 0.1127728596329689, -0.3108249306678772, -0.05384572595357895, 0.1037527471780777, 0.0755954384803772, -0.07926195114850998, -0.49686431884765625, 0.09636037051677704, 0.06170286983251572, -0.02216552570462227, -0.2929897904396057, -0.42188605666160583, -0.24444030225276947, -0.18018653988838196, -0.16935043036937714, -0.12905101478099823, 0.07018306851387024, 0.27207717299461365, -0.37152937054634094, 0.37383294105529785, 0.36932283639907837, -0.5177941918373108, -0.19378884136676788, -0.40259891748428345, 0.17046423256397247, 0.1850564181804657, 0.5132754445075989, -0.03975403681397438, 0.19464434683322906, 0.0424477644264698, 0.019240573048591614, 0.28988921642303467, 0.0573570542037487, 0.2464217245578766, 0.330288827419281, -0.3272296190261841, -0.07786333560943604, -0.2326861321926117, -0.2694247364997864, 0.16358454525470734, -0.34060147404670715, 0.24110276997089386, -0.302191823720932, -0.05121436342597008, 0.3889920711517334, -0.3338603675365448, 0.36545899510383606, -0.13288481533527374, -0.18267939984798431, 0.264438271522522, 0.10871683061122894, 0.5613803863525391, -0.6862854957580566, 0.16881558299064636, 0.28530454635620117, 0.12264338880777359, 0.07190366089344025, -0.007235906086862087, -0.0668611153960228], [-0.03141476958990097, 0.04002225026488304, 0.12615904211997986, -0.18027029931545258, 0.08799649775028229, 0.2349736988544464, -0.13738077878952026, -0.003533236449584365, 0.1391364336013794, -0.15340958535671234, 0.07570631057024002, 0.012631814926862717, -0.08473392575979233, 0.05648214742541313, -0.07814531773328781, -0.22286765277385712, 0.02943742275238037, -0.19943290948867798, 0.09121401607990265, 0.09757034480571747, 0.1377306580543518, 0.0842888206243515, 0.022361230105161667, 0.08963359892368317, -0.12525008618831635, -0.055981460958719254, 0.1721586138010025, 0.07954732328653336, 0.21804843842983246, -0.32265353202819824, 0.14893832802772522, 0.07362446933984756, -0.11984811723232269, -0.07556147128343582, -0.19603662192821503, -0.19514313340187073, -0.18363051116466522, 0.08194028586149216, 0.08532410860061646, 0.31756797432899475, -0.4632101356983185, 0.037455003708601, -0.07403890788555145, 0.16551832854747772, 0.13199438154697418, -0.010170694440603256, -0.33479374647140503, 0.2516125738620758, 0.04223072528839111, 0.18240608274936676, 0.21529509127140045, 0.13631181418895721, 0.07403355836868286, 0.07486579567193985, 0.1482972651720047, 0.06018247827887535, 0.3464820981025696, 0.03154056891798973, -0.05143791064620018, -0.0794782042503357, 0.2457696944475174, 0.0013872302370145917, -0.517419695854187, 0.24648015201091766, -0.1389078050851822, -0.11751575022935867, -0.07696939259767532, 0.12000105530023575, -0.298239529132843, 0.14206922054290771, 0.27023667097091675, -0.15342719852924347, 0.10958278179168701, 0.08706250786781311, 0.14184442162513733, 0.17902196943759918, 0.16437307000160217, 0.058990877121686935, 0.2937518358230591, 0.06386467814445496, -0.028035905212163925, -0.017710695043206215, 0.021221403032541275, -0.02330152504146099, -0.0418148972094059, 0.05562197417020798, -0.17497853934764862, -0.13843388855457306, -0.1957097053527832, 0.1346539855003357, 0.11493373662233353, -0.06307189166545868, 0.05233060196042061, -0.05334900692105293, -0.06993553042411804, -0.16271010041236877, 0.2511352598667145, 0.07911207526922226, -0.10654296725988388, -0.13167378306388855, -0.021028298884630203, 0.17043296992778778, 0.19758157432079315, -0.3695230185985565, 0.22356952726840973, 0.06944985687732697, 0.15011070668697357, 0.05549557879567146, -0.149151012301445, 0.17519119381904602, -0.09405508637428284, 0.043928734958171844, 0.1806565225124359, -0.3762812912464142, 0.11903078854084015, 0.0411955863237381, -0.014467306435108185, -0.036797843873500824, -0.24193689227104187, 0.17938709259033203, -0.21671698987483978, 0.031080888584256172, -0.16213014721870422, 0.1416289359331131, -0.1306726336479187, 0.2231406271457672, -0.1909242868423462, -0.013041740283370018], [-0.1034919023513794, 0.037111956626176834, 0.3978923261165619, 0.12037903070449829, -0.091544970870018, 0.29558536410331726, -0.1264062225818634, -0.08063659816980362, -0.21831226348876953, -0.3046967089176178, -0.8125081062316895, 0.2694735825061798, -0.09549286961555481, 0.2560800313949585, 0.1241939514875412, 0.07139664143323898, 0.33819448947906494, -0.1385394036769867, -0.010232753120362759, -0.26673969626426697, 0.07767123728990555, 0.42366984486579895, -0.4960903823375702, -0.08139418065547943, 0.07936540246009827, -0.10353287309408188, 0.41085922718048096, -0.6125258803367615, -0.22563886642456055, 0.0023109479807317257, 0.08541670441627502, 0.07679536193609238, 0.2656363546848297, 0.3061074912548065, -0.18713441491127014, -0.27430450916290283, 0.43746882677078247, -0.5477256774902344, 0.008076466619968414, -0.5986359119415283, 0.14953342080116272, -0.3543766140937805, -0.10237245261669159, 0.16494619846343994, 0.31499338150024414, -0.20006978511810303, 0.07356555759906769, -0.1085662767291069, -0.12073750048875809, -0.16472283005714417, 0.16599123179912567, -0.14626044034957886, -0.36660221219062805, -0.27956026792526245, 0.4762420356273651, 0.6897899508476257, 0.02241447940468788, 0.11452695727348328, -0.23421891033649445, -0.41883760690689087, 0.18923009932041168, -0.3765583634376526, 0.5479735136032104, -0.4025174081325531, 0.06273545324802399, 0.36093956232070923, 0.006612368393689394, 0.4523967206478119, 0.3297176957130432, 0.3560894727706909, -0.39014890789985657, 0.5371460318565369, 0.1766776591539383, 0.25881442427635193, 0.15230214595794678, -0.053905896842479706, -0.057275258004665375, 0.08845879882574081, 0.05486070737242699, -0.29683032631874084, -0.47068583965301514, 0.12681201100349426, 0.34151512384414673, 0.22502052783966064, 0.1277140974998474, 0.33647608757019043, 0.052959881722927094, 0.3701520562171936, 0.520355761051178, 0.1244247704744339, -0.12884294986724854, -0.8407085537910461, -0.24705161154270172, 0.28000110387802124, 0.4418815076351166, 0.5702646970748901, -0.08329319208860397, -0.061609599739313126, -0.5933223962783813, -0.306811660528183, 0.3176726698875427, 0.050057992339134216, 0.7345359325408936, 0.5957014560699463, -0.41790756583213806, -0.04949275404214859, 0.21459953486919403, -0.06785812973976135, 0.29107940196990967, -0.12628911435604095, 0.3265182077884674, -0.2520800530910492, -0.35069701075553894, 0.36828893423080444, -0.4716733396053314, 0.5287736058235168, -0.22534489631652832, -0.6327308416366577, 0.3119274377822876, -0.21324379742145538, 0.32307472825050354, -0.5517473816871643, -0.013125525787472725, 0.19095058739185333, 0.0009517385042272508, 0.4657424986362457, -0.4476972222328186, 0.5724578499794006], [-0.289638876914978, 0.3636420667171478, 0.02640724927186966, -0.3018820583820343, -0.09270143508911133, -0.18063139915466309, -0.5284650921821594, 0.1199103593826294, -0.09172621369361877, -0.0645522028207779, 0.01790049485862255, 0.3252883851528168, 0.1586594134569168, 0.26167163252830505, 0.31138697266578674, 0.3461974263191223, 0.37407511472702026, 0.16665704548358917, -0.35192596912384033, 0.20652563869953156, 0.6469035744667053, -0.11736167222261429, 0.08877982199192047, 0.18486253917217255, -0.08589234203100204, 0.6215506792068481, 0.15951655805110931, 0.14371226727962494, 0.34168869256973267, 0.026753228157758713, -0.5481904149055481, 0.23554769158363342, -0.4708598852157593, 0.3189888894557953, -0.3950166702270508, 0.4025638997554779, -0.028971580788493156, -0.4734906852245331, -0.434353232383728, 0.1267765760421753, 0.19441668689250946, -0.7628023028373718, -0.2296333760023117, -0.18549706041812897, 0.044111549854278564, 0.1472296267747879, -0.07700511813163757, -0.05040888860821724, 0.34240660071372986, 0.23093721270561218, -0.08030696958303452, 0.04146513715386391, 0.11423316597938538, 0.5381364226341248, 0.4795597791671753, 0.21398384869098663, 0.11561255902051926, -0.06065679341554642, 0.22961801290512085, 0.4744585156440735, -0.1347528100013733, -0.6422028541564941, -0.35827380418777466, -0.05217006430029869, -0.22189120948314667, -0.06173984706401825, -0.43659019470214844, -0.18367645144462585, -0.2555748522281647, 0.3278442323207855, -0.05738331377506256, -0.6709743738174438, -0.08285776525735855, 0.2696290910243988, 0.10432828962802887, -0.27453404664993286, -0.07253815233707428, 0.05482339486479759, 0.2797182500362396, -0.4928918182849884, 0.02769918367266655, -0.36783120036125183, -0.03975929692387581, -0.2740020453929901, 0.163374125957489, 0.18587414920330048, -0.11066391319036484, -0.25102052092552185, -0.8130313754081726, -0.29736602306365967, 0.49664220213890076, 0.5313048958778381, 0.4220603108406067, -0.21843232214450836, -0.09293816983699799, 0.023716118186712265, -0.08748398721218109, -0.46615394949913025, -0.04162014275789261, 0.11810123175382614, -0.2053433358669281, -0.04319975897669792, -0.36077582836151123, 0.44056469202041626, 0.08672994375228882, 0.23591399192810059, 0.43921491503715515, 0.27244994044303894, 0.44472306966781616, 0.2961121201515198, 0.16092577576637268, 0.18025361001491547, -0.6353394985198975, -0.6884801387786865, 0.45793581008911133, -0.03407301381230354, 0.37947365641593933, 0.15261350572109222, -0.41886812448501587, 0.34253883361816406, 0.11283359676599503, -0.027888743206858635, -0.058871712535619736, -0.1979966163635254, -0.18367215991020203, -0.36334195733070374, 0.5771764516830444, -0.33970627188682556], [0.12925271689891815, 0.0483078695833683, 0.13738252222537994, 0.02756039798259735, -0.14683891832828522, -0.19339318573474884, -0.08167494088411331, -0.21322190761566162, -0.13967309892177582, -0.06177520751953125, 0.008247983641922474, 0.06623832881450653, 0.060127533972263336, -0.16021235287189484, -0.09860018640756607, -0.07227558642625809, -0.18306834995746613, 2.275407314300537e-05, -0.19652563333511353, -0.02053501084446907, -0.06103555113077164, 0.10260162502527237, 0.017079629004001617, 0.04161285609006882, -0.011965548619627953, -0.07252399623394012, -0.021015988662838936, -0.0754517987370491, -0.13365744054317474, 0.14246784150600433, -0.16504676640033722, 0.11443512886762619, 0.001780108897946775, 0.09183774888515472, -0.029504936188459396, -0.11969807744026184, -0.021149756386876106, -0.1085626631975174, -0.09161615371704102, -0.03241264820098877, -0.0739935114979744, -0.1714109629392624, -0.18582144379615784, -0.06690989434719086, 0.14717984199523926, -0.013379164040088654, -0.03901160880923271, 0.10848116874694824, -0.16953609883785248, -0.19358032941818237, -0.06958053261041641, -0.10229884833097458, -0.15728330612182617, -0.10960821807384491, -0.11462543904781342, -0.18548013269901276, -0.07651597261428833, -0.052673131227493286, -0.09866682440042496, 0.1538463532924652, 0.014035002328455448, -0.024694189429283142, -0.07204605638980865, -0.17661118507385254, 0.008317149244248867, 0.05658381059765816, 0.05955240875482559, -0.013597219251096249, 0.010447299107909203, -0.04543149098753929, -0.1195114403963089, -0.018314821645617485, 0.1332315355539322, -0.16495709121227264, -0.1212463453412056, -0.14516998827457428, -0.05630267411470413, 0.0978771448135376, 0.005349073559045792, -0.1356973946094513, 0.13897882401943207, -0.014801575802266598, 0.026131873950362206, -0.13647529482841492, 0.026250187307596207, -0.005411096382886171, -0.20420898497104645, -0.08366348594427109, -0.12935204803943634, 0.02349957264959812, -0.19707709550857544, 0.12712900340557098, 0.02743108570575714, 0.03158296272158623, 0.1071336641907692, -0.20542104542255402, 0.0801815465092659, 0.08678926527500153, 0.12843045592308044, -0.08448999375104904, -0.14801378548145294, -0.08291605114936829, -0.020608454942703247, 0.02991020679473877, -0.04932493716478348, 0.04563340172171593, 0.08733275532722473, 0.038054149597883224, -0.16823944449424744, 0.06496083736419678, -0.1924891322851181, -0.05378495156764984, -0.12722612917423248, -0.2170250415802002, 0.026707740500569344, 0.06177675724029541, -0.02979475073516369, -0.08132424205541611, 0.040867213159799576, 0.05207892507314682, 0.04914899170398712, 0.01463247835636139, -0.11464705318212509, -0.19923043251037598, -0.02649310976266861, 0.07031919062137604, -0.09582582861185074, -0.19526931643486023], [-0.21766945719718933, 0.26551759243011475, -0.37396419048309326, -0.21184079349040985, -0.12177973240613937, -0.1954120695590973, -0.3238280117511749, 0.20317912101745605, 0.18987371027469635, 0.06542536616325378, 0.007061143405735493, 0.4630182385444641, -0.02634805254638195, 0.13762886822223663, 0.12943626940250397, 0.11582142859697342, 0.031619518995285034, 0.1385766863822937, -0.16995587944984436, 0.024058924987912178, 0.4790389835834503, -0.07076205313205719, 0.3992883861064911, 0.11083731800317764, -0.6295528411865234, 0.47027504444122314, 0.3080546259880066, -0.1346292644739151, 0.05820455029606819, -0.26838842034339905, -0.4638037085533142, 0.1802181601524353, -0.4959731698036194, 0.6225985288619995, -0.6540360450744629, 0.2128215730190277, -0.17162641882896423, -0.2827146351337433, -0.6559585332870483, 0.03778955340385437, -0.1387975662946701, -0.5501338243484497, -0.42512986063957214, -0.32993149757385254, 0.015280413441359997, -0.1412920355796814, -0.23647470772266388, 0.034286659210920334, -0.0022053085267543793, 0.05360741913318634, 0.002995610935613513, -0.11203073710203171, 0.028580032289028168, 0.7015232443809509, 0.4304830729961395, -0.04965227097272873, 0.10479030013084412, -0.05949753522872925, 0.2082441747188568, 0.12341898679733276, -0.2821977436542511, -0.19994530081748962, -0.3110770583152771, -0.033153608441352844, -0.37041935324668884, -0.1777225285768509, 0.017160644754767418, -0.12333693355321884, -0.33024150133132935, 0.04250910505652428, -0.01822684332728386, -1.0151270627975464, -0.2115621417760849, 0.16494667530059814, -0.13415992259979248, 0.00021602946799248457, -0.15731747448444366, 0.28962254524230957, 0.27033260464668274, -0.2526412904262543, -0.02989444136619568, -0.3927825093269348, -0.2039775550365448, -0.33596909046173096, 0.01224141102284193, 0.07607581466436386, -0.06001615151762962, -0.4482322037220001, -0.6514716148376465, -0.3725973069667816, 0.04533958062529564, 0.26963430643081665, 0.39715269207954407, -0.09949322044849396, 0.07152749598026276, 0.11845353990793228, 0.16437487304210663, -0.3079416751861572, 0.3425663411617279, -0.03774714842438698, -0.27873915433883667, 0.07265175133943558, -0.2833402156829834, 0.5760921835899353, 0.020713604986667633, 0.3242410123348236, 0.1540103405714035, 0.5145731568336487, 0.33478492498397827, -0.07783781737089157, 0.2082786113023758, -0.024177486076951027, -0.727829098701477, -0.3818378448486328, 0.3107517659664154, 0.2088818997144699, 0.19046227633953094, 0.10040181875228882, -0.12855112552642822, 0.39606693387031555, 0.045599475502967834, -0.14184413850307465, 0.13113753497600555, -0.04367570951581001, -0.3221038579940796, -0.46171820163726807, 0.28680092096328735, -0.09030447155237198], [-0.034615885466337204, -0.3980497121810913, 0.2437397837638855, -0.22117319703102112, -0.13594509661197662, 0.24247419834136963, 0.2509511113166809, 0.016297461465001106, 0.15723097324371338, 0.06933218240737915, 0.22032225131988525, -0.07473031431436539, 0.05292682349681854, 0.02553456835448742, 0.24189051985740662, -0.2646383047103882, -0.07144021987915039, 0.27587056159973145, 0.17771637439727783, -0.1292095184326172, 0.10340013355016708, -0.24925653636455536, 0.23793968558311462, -0.06297822296619415, -0.22855769097805023, 0.07515399903059006, 0.050192076712846756, -0.23755526542663574, -0.21171045303344727, -0.4976392090320587, 0.224713996052742, -0.2350853532552719, -0.28591105341911316, -0.22691166400909424, 0.04208223149180412, 0.30206820368766785, -0.3432634770870209, 0.15173812210559845, 0.31125161051750183, 0.4597524404525757, -0.21664322912693024, -0.32526013255119324, 0.10826168954372406, -0.24084343016147614, 0.02676292508840561, 0.13455425202846527, 0.09892423450946808, 0.2877857983112335, 0.2068721055984497, 0.20934653282165527, 0.11730136722326279, -0.02606096863746643, 0.3457012474536896, -0.052247244864702225, -0.1817973554134369, -0.34720712900161743, -0.03784138336777687, 0.3253215551376343, 0.010589934885501862, -0.23253679275512695, 0.10998696088790894, -0.1329309642314911, 0.10646884143352509, 0.4055774509906769, -0.08382079005241394, -0.1187044158577919, -0.09930523484945297, 0.051945414394140244, -0.1561831831932068, 0.03063494898378849, 0.12386702001094818, -0.15240207314491272, -0.20992989838123322, 0.1761225461959839, -0.43569403886795044, 0.25010576844215393, -0.01987711526453495, 0.1970316767692566, -0.01803799904882908, 0.07463575154542923, 0.05381690338253975, -0.12445849180221558, 0.33221569657325745, -0.17913614213466644, 0.26834166049957275, -0.570180356502533, -0.49534788727760315, 0.04684687405824661, -0.22330273687839508, 0.17463745176792145, 0.07202943414449692, 0.027333518490195274, -0.02687654457986355, -0.02293827012181282, -0.3063632547855377, 0.0465293824672699, 0.12498952448368073, 0.016727307811379433, 0.33537229895591736, -0.07740943133831024, -0.15060009062290192, 0.057790257036685944, -0.21290799975395203, -0.2833438515663147, 0.16661472618579865, 0.03133518993854523, 0.14042428135871887, 0.16042707860469818, 0.13112659752368927, -0.11545097082853317, -0.013589288108050823, 0.26675736904144287, 0.2335290163755417, -0.12645772099494934, 0.004820579197257757, -0.4195159673690796, -0.1623125523328781, 0.2050076425075531, 0.16918793320655823, -0.00106805469840765, -0.046358343213796616, -0.1888725906610489, -0.3420305848121643, 0.12588803470134735, -0.05586656928062439, -0.13371910154819489, -0.2706269323825836, -0.22398290038108826], [-0.004062035121023655, -0.06120814010500908, -0.1470649540424347, -0.1436081826686859, -0.04168923199176788, -0.06275773793458939, -0.15121588110923767, 0.18694493174552917, 0.16189540922641754, 0.06404583901166916, 0.07837888598442078, 0.308698445558548, 0.20349977910518646, 0.06828337162733078, -0.015417876653373241, 0.04473094642162323, 0.030964544042944908, 0.0024059731513261795, 0.06938845664262772, 0.12659579515457153, 0.27949079871177673, 0.15352590382099152, -0.03670339658856392, 0.11770307272672653, -0.22663399577140808, 0.39740779995918274, 0.03892429545521736, 0.09384746849536896, 0.07424166798591614, -0.3446822464466095, -0.49363601207733154, 0.3218671381473541, 0.10946293920278549, -0.3592894673347473, -0.2546786367893219, 0.09330183267593384, -0.16541945934295654, -0.23926901817321777, -0.024219386279582977, 0.1080937534570694, -0.3317660689353943, -0.2538761794567108, -0.12269566208124161, -0.31997907161712646, 0.03505945950746536, 0.1010642945766449, -0.2827780544757843, -0.07475987076759338, 0.007644062861800194, 0.2701016962528229, 0.056614529341459274, -0.02212991565465927, 0.0717572420835495, 0.2082309126853943, 0.39662033319473267, -0.12492908537387848, 0.15100973844528198, -0.12045931816101074, -0.16482429206371307, 0.08791249245405197, 0.15000508725643158, -0.06151607260107994, -0.3561692237854004, 0.271716445684433, -0.22162427008152008, -0.07448192685842514, 0.12333740293979645, -0.1783430278301239, -0.5264336466789246, -0.023562148213386536, 0.2564677298069, -0.032563354820013046, -0.2509731948375702, 0.39206355810165405, -0.2279571294784546, -0.40772873163223267, -0.01448118593543768, 0.22682005167007446, 0.12511302530765533, -0.3253856897354126, 0.13655510544776917, -0.26401981711387634, -0.36683282256126404, -0.06497590243816376, 0.06198872625827789, 0.033083632588386536, 0.17773422598838806, -0.48290324211120605, -0.7122043371200562, -0.43375033140182495, 0.14020931720733643, 0.20644016563892365, 0.6686850786209106, 0.10414298623800278, -0.30604884028434753, -0.15634949505329132, -0.09077437967061996, -0.09577414393424988, -0.06929551064968109, 0.01665009744465351, -0.3167739510536194, -0.05228341743350029, -0.6210361123085022, 0.1709471195936203, -0.011715349741280079, 0.21152204275131226, 0.19439586997032166, -0.015401153825223446, 0.14237481355667114, 0.19602300226688385, 0.0705939382314682, 0.07768012583255768, -0.40730124711990356, -0.7341904640197754, 0.005133863538503647, 0.055467210710048676, -0.22274531424045563, -0.18909476697444916, -0.249477356672287, 0.17619234323501587, -0.4428665339946747, -0.037221573293209076, 0.017721859738230705, -0.13228996098041534, -0.4208945333957672, -0.23283222317695618, 0.04575696215033531, -0.324057012796402], [-0.1661459505558014, -0.3330826163291931, 0.13169167935848236, -0.6779921650886536, -0.12863335013389587, 0.23968327045440674, -0.37487709522247314, 0.2342292219400406, 0.05624343082308769, -0.16894271969795227, 0.2897788882255554, 0.4066578447818756, 0.1245306134223938, -0.017547626048326492, -0.02023952454328537, 0.011832565069198608, -0.08416687697172165, -0.22329851984977722, 0.00727153941988945, -0.04728559032082558, 0.23896001279354095, 0.1160600483417511, 0.1294127255678177, -0.00639447383582592, -0.5589903593063354, 0.47808074951171875, 0.17133860290050507, 0.17723949253559113, 0.16491331160068512, 0.1775500625371933, 0.0805109292268753, 0.2697694003582001, 0.3265202045440674, -0.13350075483322144, -0.9171202182769775, -0.10419118404388428, -0.07023452967405319, -0.026024330407381058, -0.23909543454647064, 0.11381136626005173, -0.3231780529022217, -0.0075042881071567535, 0.2619091868400574, -0.2182057797908783, 0.198200523853302, -0.2351187765598297, -0.19297979772090912, 0.206202894449234, -0.04104962572455406, 0.10765845328569412, 0.3183569014072418, -0.18882764875888824, -0.1012330949306488, -0.15030036866664886, -0.07311920076608658, 0.05605277419090271, 0.1831495463848114, -0.1868116557598114, -0.33903345465660095, -0.2217608094215393, -0.13619253039360046, 0.38830482959747314, 0.04063522070646286, 0.3485259711742401, 0.012224660255014896, 0.3526919186115265, -0.016300028190016747, 0.12003341317176819, -0.40891993045806885, 0.19530566036701202, 0.019847674295306206, 0.24665875732898712, -0.16852372884750366, -0.11648931354284286, -0.4491223990917206, -0.2969880998134613, -0.247056245803833, 0.19390864670276642, 0.18131305277347565, 0.24826256930828094, -0.16138650476932526, 0.28998762369155884, -0.7850245237350464, -0.008831484243273735, -0.13346822559833527, 0.038325753062963486, 0.17219330370426178, -0.001121878158301115, -0.7092665433883667, 0.022471267729997635, 0.06985591351985931, 0.14619527757167816, 0.26186561584472656, 0.01807382144033909, -0.18851512670516968, 0.00640120031312108, 0.32590529322624207, 0.1210005059838295, 0.07714278250932693, 0.26429298520088196, -0.15039578080177307, 0.1632765531539917, -0.394548237323761, -0.42517828941345215, -0.15151607990264893, 0.4364008903503418, 0.07930911332368851, -0.01035965234041214, -0.2730638086795807, -0.13343732059001923, 0.20414675772190094, 0.11623009294271469, -0.2964690923690796, -0.7783926725387573, 0.24533692002296448, -0.07698505371809006, -0.03547479212284088, 0.023571966215968132, -0.16486644744873047, -0.07485498487949371, -0.6383532285690308, -0.06893380731344223, 0.03686380386352539, -0.23523475229740143, -0.6434378027915955, -0.3976913094520569, 0.08184020966291428, -0.4066489040851593], [-0.08538609743118286, -0.11097357422113419, 0.03686276450753212, -0.05206252634525299, 0.4774217903614044, 0.227028027176857, 0.28362587094306946, 0.14970211684703827, 0.1378425508737564, 0.2982589602470398, 0.37185588479042053, 0.005001353099942207, -0.097653329372406, -0.04654170572757721, 0.04703139141201973, -0.0801125317811966, 0.0781005322933197, -0.09275511652231216, 0.013875581324100494, -0.06311841309070587, -0.01164332590997219, -0.6810184717178345, 0.12739282846450806, 0.068443164229393, 0.20230504870414734, 0.09210602194070816, -0.11521628499031067, -0.3404150605201721, 0.01514409575611353, -0.24833934009075165, 0.04130018129944801, -0.1886419653892517, -0.40486615896224976, 0.20289941132068634, -0.2662889361381531, 0.46476203203201294, -0.2288748323917389, -0.00024062329612206668, 0.017372071743011475, 0.2512015104293823, -0.08363448083400726, -0.09326206147670746, -0.33430784940719604, -0.01951899379491806, 0.082416832447052, 0.11856476217508316, 0.02549210749566555, 0.015378927811980247, -0.06269360333681107, 0.17054642736911774, -0.30272141098976135, 0.5470312237739563, 0.0713043361902237, 0.4054591953754425, 0.3341234624385834, 0.2688103914260864, -0.10837007313966751, -0.6811069846153259, -0.02462654374539852, 0.043863777071237564, 0.13388413190841675, -0.28364139795303345, -0.24904273450374603, 0.04166494309902191, 0.1669878512620926, -0.12435676902532578, -0.08796508610248566, -0.03041377104818821, -0.12976917624473572, -0.03480879217386246, -0.11159583181142807, -0.2831440567970276, 0.1792997270822525, -0.08564314991235733, -0.2345832884311676, -0.10966812819242477, 0.09747247397899628, 0.02587840147316456, -0.3917781412601471, 0.3375369608402252, -0.01591523550450802, 0.05953282490372658, 0.12557154893875122, 0.21456848084926605, 0.012659919448196888, -0.024415690451860428, -0.3841647505760193, -0.5582391023635864, -1.0103152990341187, 0.10263941437005997, -0.1663118302822113, -0.2663201093673706, -0.1863144338130951, -0.0095961419865489, -0.43533530831336975, -0.22833934426307678, -0.643282413482666, 0.1743314266204834, 0.3084240257740021, 0.19816014170646667, -0.5604957938194275, 0.09101980924606323, -0.1590816229581833, 0.02485535852611065, -0.02568233571946621, 0.05812985450029373, 0.3791462481021881, 0.121815524995327, 0.21844352781772614, -0.126912921667099, -0.2372240126132965, -0.11172753572463989, -0.07355763018131256, -0.09934324026107788, -0.17741043865680695, -0.06308780610561371, 0.039811208844184875, -0.3795298635959625, 0.05896712467074394, -0.009645108133554459, 0.0037582223303616047, -0.4859484136104584, 0.03518538549542427, 0.18326276540756226, -0.15961754322052002, -0.21297010779380798, -0.3634289801120758, -0.31099942326545715], [0.26431652903556824, 0.11368242651224136, 0.02877061627805233, 0.2767847180366516, 0.34001094102859497, 0.05338141322135925, -0.057100437581539154, 0.19569799304008484, 0.054732561111450195, -0.10762768983840942, -0.18135075271129608, 0.0715046152472496, -0.008152036927640438, 0.27119672298431396, -0.06199941411614418, -0.015890268608927727, 0.15844690799713135, -0.036880239844322205, 0.09086813777685165, 0.10860884189605713, 0.12693484127521515, -0.030931252986192703, -0.19399277865886688, -0.04026345908641815, 0.03195687755942345, -0.2698046863079071, -0.03721429780125618, -0.25186848640441895, -0.07347946614027023, 0.14795422554016113, -0.12555399537086487, 0.14836665987968445, 0.018052369356155396, -0.03978881984949112, 0.21503368020057678, -0.0643441379070282, 0.041805677115917206, -0.07461927831172943, 0.02306659333407879, -0.12902015447616577, 0.19270479679107666, 0.08873076736927032, -0.05229520797729492, 0.10700365900993347, -0.0718357264995575, 0.00997578352689743, 0.062026914209127426, 0.014972683973610401, -0.20902323722839355, -0.2569485306739807, 0.11498477309942245, -0.3737353980541229, -0.11937741935253143, -0.0375085212290287, 0.14509810507297516, 0.1363326460123062, 0.14645859599113464, 0.24240875244140625, -0.1303388625383377, 0.07085850089788437, -0.02573271095752716, -0.0843764990568161, 0.37482738494873047, -0.2524070143699646, -0.014574596658349037, 0.2196206897497177, 0.25145775079727173, 0.20687410235404968, -0.07485400885343552, 0.2487403303384781, -0.1699638068675995, 0.10832887887954712, -0.017606625333428383, 0.07622940838336945, 0.20702029764652252, -0.0952029600739479, 0.14616890251636505, 0.1913030594587326, 0.009809390641748905, 0.12024837732315063, 0.06103222444653511, 0.08420369774103165, 0.06997683644294739, 0.22860358655452728, -0.07743936777114868, 0.0860571414232254, 0.17998990416526794, 0.09005991369485855, 0.17645177245140076, -0.006417690310627222, 0.1939832717180252, -0.17030252516269684, -0.21660728752613068, 0.15461362898349762, 0.017037851735949516, 0.361786425113678, -0.22567540407180786, 0.038783926516771317, -0.22962431609630585, -0.13326416909694672, -0.08916313946247101, 0.2512839734554291, 0.14070411026477814, 0.11264579743146896, 0.010293245315551758, 0.020091595128178596, 0.07263454049825668, -0.04881393536925316, 0.14957943558692932, -0.14827099442481995, 0.23434166610240936, 0.1353941112756729, -0.05650506168603897, 0.2657904624938965, -0.12724284827709198, 0.3770731985569, 0.05263305827975273, 0.06632833182811737, 0.1722669154405594, 0.06406931579113007, 0.18097850680351257, 0.12887558341026306, 0.30047407746315, 0.15216295421123505, 0.02882421761751175, 0.25635966658592224, -0.004916513338685036, 0.03170454129576683], [-0.35912421345710754, 0.3821704685688019, 0.08979110419750214, -0.3609645664691925, 0.01578322984278202, 0.03713275492191315, -0.3672851622104645, 0.3267610967159271, 0.06106977164745331, -0.023589055985212326, 0.22105814516544342, 0.3877265751361847, 0.15725307166576385, 0.0009640413918532431, 0.11024743318557739, 0.27209633588790894, 0.22973771393299103, 0.2574802339076996, -0.09997136890888214, 0.06386936455965042, 0.33046379685401917, 0.1817692369222641, 0.21021270751953125, 0.24035480618476868, 0.027830133214592934, 0.40488940477371216, 0.2093707025051117, -0.04332109913229942, 0.08570221066474915, 0.20053240656852722, -0.5071068406105042, 0.049590177834033966, -0.04273999482393265, 0.40086275339126587, -0.6039583683013916, 0.3299279510974884, 0.034711193293333054, -0.5794220566749573, -0.45602986216545105, 0.13809829950332642, -0.10462912172079086, -0.4314683675765991, -0.06716001778841019, -0.3737509250640869, 0.004662179388105869, -0.05223960429430008, -0.017108747735619545, 0.014633508399128914, -0.04836258292198181, 0.26556864380836487, -0.07865288108587265, -0.009256967343389988, 0.20537948608398438, 0.6111757755279541, 0.35980167984962463, 0.02260667085647583, 0.007004029583185911, -0.06424618512392044, 0.17667244374752045, 0.23224693536758423, -0.03033670224249363, -0.5480574369430542, -0.4483622610569, 0.17124305665493011, -0.17632393538951874, -0.20666125416755676, -0.41996505856513977, -0.018932830542325974, -0.5218923687934875, 0.15019990503787994, 0.08456891030073166, -0.45716843008995056, -0.04004346579313278, 0.2836964726448059, -0.027256185188889503, 0.03972671926021576, -0.230727419257164, 0.1876802146434784, 0.16555313766002655, -0.4490160644054413, 0.04698704555630684, -0.27224379777908325, -0.02953978441655636, -0.23908008635044098, 0.3636137545108795, 0.21745026111602783, -0.19027113914489746, -0.3914075791835785, -0.5353360176086426, -0.4428856074810028, 0.43646588921546936, 0.5382314920425415, 0.37363195419311523, -0.239949032664299, -0.031194431707262993, 0.05111684650182724, 0.05115535482764244, -0.31009641289711, -0.09966900199651718, -0.08092176914215088, -0.31204190850257874, -0.12042621523141861, -0.3978162705898285, 0.3961261510848999, 0.02843094803392887, 0.2821289300918579, 0.4511028826236725, 0.2701427638530731, 0.1679975837469101, 0.3087228238582611, 0.3605848550796509, 0.4035259783267975, -0.4441441297531128, -0.747607409954071, 0.32064443826675415, 0.20212116837501526, 0.23368218541145325, 0.322863906621933, -0.15291519463062286, 0.25513339042663574, 0.14463694393634796, -0.1283080130815506, 0.16649281978607178, -0.04074046388268471, -0.4011179208755493, -0.2556678354740143, 0.4183404743671417, -0.2422390729188919], [0.016180001199245453, -0.2307947278022766, 0.09698925167322159, 0.0007252392242662609, 0.05789436027407646, 0.4591684639453888, -0.007875831797719002, -0.24771632254123688, -0.22710640728473663, -0.13276556134223938, -0.09056297689676285, -0.15540564060211182, -0.09684794396162033, 0.12014514952898026, 0.21840323507785797, 0.0059640235267579556, 0.0975373312830925, -0.311100572347641, 0.0709410309791565, -0.17281779646873474, -0.09598466008901596, 0.04217207431793213, -0.013183806091547012, -0.37267935276031494, 0.09350839257240295, -0.23967237770557404, 0.32460924983024597, -0.14973172545433044, -0.2675122320652008, 0.10259397327899933, -0.06384295970201492, 0.06096705421805382, 0.2307020127773285, 0.04354047402739525, 0.4969917833805084, -0.13980482518672943, 0.3667663037776947, -0.15234602987766266, 0.1768816113471985, -0.2746449410915375, 0.41090139746665955, 0.04410888999700546, -0.30214065313339233, 0.12430521845817566, 0.28025078773498535, 0.04741518944501877, 0.08041215687990189, -0.02296256087720394, -0.2641672194004059, -0.26375970244407654, 0.0722842738032341, -0.07661061733961105, -0.29833048582077026, -0.14561867713928223, 0.16179819405078888, 0.13974766433238983, 0.2978682816028595, -0.2817976772785187, -0.23834261298179626, -0.5208839178085327, 0.1448270082473755, -0.06600257009267807, 0.38060322403907776, -0.12795308232307434, 0.008892134763300419, 0.1297798752784729, 0.007341852877289057, 0.10126014053821564, 0.09825362265110016, 0.4628690183162689, -0.48448213934898376, 0.2788163125514984, 0.1205742284655571, 0.045753128826618195, 0.051494184881448746, -0.5317200422286987, 0.09081185609102249, 0.32767465710639954, 0.15144996345043182, -0.020854761824011803, -0.2432788759469986, -0.2563164234161377, 0.2745490074157715, 0.08206748962402344, -0.12639009952545166, 0.0544491708278656, 0.0317884124815464, 0.0031992532312870026, 0.48459431529045105, 0.1553928107023239, -0.056027233600616455, -0.5220584869384766, -0.22320836782455444, 0.2538728415966034, 0.23515921831130981, 0.2394958734512329, -0.35761383175849915, 0.04910394176840782, -0.17154398560523987, -0.3185722231864929, 0.11435742676258087, 0.12041378021240234, 0.2767661213874817, 0.2526344060897827, -0.06068076565861702, -0.22578959167003632, 0.16102147102355957, -0.28267282247543335, 0.45109638571739197, -0.37310028076171875, 0.26127806305885315, -0.34621089696884155, -0.2142302244901657, 0.16272222995758057, -0.6281647682189941, 0.5558030605316162, 0.08843552321195602, -0.2679596543312073, 0.2703394889831543, -0.011813783086836338, 0.10471156239509583, -0.2088344693183899, 0.30784761905670166, 0.2436373084783554, -0.022032491862773895, 0.20812851190567017, -0.5297721028327942, 0.2948201298713684], [0.23103836178779602, 0.1444331258535385, -0.10064368695020676, -0.10895338654518127, -0.39688119292259216, -0.14776182174682617, -1.0129921436309814, 0.09076394140720367, -0.25741690397262573, -0.3750925362110138, 0.1424899697303772, -0.006966025102883577, 0.06260807067155838, -0.31705713272094727, 0.12158939987421036, 0.18673153221607208, -0.11525091528892517, -0.08730354905128479, -0.1584322452545166, 0.057780928909778595, 0.4191463589668274, 0.33099886775016785, -0.2732999324798584, -0.3397699296474457, -0.4819154441356659, -0.2489246129989624, 0.29963091015815735, 0.47335439920425415, 0.11041732132434845, -0.1794537454843521, -0.14775364100933075, 0.2191503793001175, 0.31628549098968506, 0.20905251801013947, -0.40776169300079346, -0.14933259785175323, 0.308503657579422, -0.06441841274499893, -0.05262293294072151, 0.036963868886232376, -0.09789235144853592, -0.1466146856546402, 0.14473284780979156, -0.1440812349319458, -0.0675697922706604, 0.10287798941135406, -0.27945926785469055, 0.15175415575504303, -0.103805311024189, 0.3961142897605896, 0.18895979225635529, -0.009638833813369274, 0.18382692337036133, -0.05366428568959236, 0.12859898805618286, -0.03963099420070648, 0.2233494371175766, -0.07795657962560654, -0.10976755619049072, -0.09776540845632553, 0.029425472021102905, 0.28140783309936523, 0.08337045460939407, -0.020776214078068733, -0.20672599971294403, -0.12692171335220337, 0.05622482672333717, 0.013561156578361988, -0.26710739731788635, -0.22402659058570862, 0.019088637083768845, -0.07524934411048889, -0.39715561270713806, 0.3272789418697357, 0.2602817416191101, -0.121851846575737, -0.04927637800574303, -0.3628731667995453, -0.04472721740603447, -0.6622655391693115, -0.13296398520469666, 0.03740286827087402, -0.37701788544654846, -0.31124183535575867, -0.2994990646839142, 0.04255414381623268, 0.0646071657538414, -0.3038245737552643, -0.07506515830755234, 0.03569217398762703, 0.03687018156051636, -0.11347249895334244, 0.2515679895877838, -0.22173352539539337, 0.06311521679162979, -0.0358411930501461, -0.0004653693758882582, -0.15848059952259064, 0.014309938065707684, 0.300891250371933, -0.13086672127246857, -0.6690033078193665, -0.6734260320663452, 0.1659889817237854, -0.025859029963612556, 0.06947053968906403, -0.06742645055055618, -0.06468358635902405, 0.058059077709913254, -0.04875258356332779, 0.3337149918079376, 0.27503252029418945, -0.14244861900806427, -0.11125560104846954, 0.05622363090515137, -0.41126537322998047, -0.03786439448595047, -0.15187324583530426, 0.01275374460965395, -0.07464703917503357, -0.1212795302271843, 0.20602896809577942, 0.03508583828806877, 0.012074416503310204, 0.04445820301771164, -0.6348385214805603, 0.007063207216560841, -0.25929051637649536], [0.17200270295143127, -0.11895406246185303, -0.22417692840099335, -0.15014469623565674, 0.28562718629837036, 0.22705449163913727, 0.060391902923583984, -0.11759265512228012, -0.0010939378989860415, 0.13823038339614868, 0.1795828938484192, -0.023447895422577858, -0.21119095385074615, 0.007199994288384914, 0.025032879784703255, -0.200227752327919, -0.05912494286894798, -0.14667923748493195, 0.007612396962940693, -0.19730770587921143, 0.05966145172715187, 0.013804223388433456, 0.10567759722471237, 0.011354001238942146, 0.3239714503288269, -0.0007484300876967609, 0.06282488256692886, -0.3815997540950775, -0.07891514152288437, 0.03318297490477562, 0.1788254827260971, 0.26126930117607117, 0.06615376472473145, 0.08868372440338135, -0.2735272943973541, 0.15706676244735718, -0.08218169212341309, 0.1456756442785263, 0.0744362324476242, -0.08982610702514648, 0.5446478724479675, -0.0043166931718587875, 0.3089599311351776, 0.036520104855298996, 0.050177935510873795, -0.14824016392230988, -0.06731197237968445, 0.1395929902791977, -0.08546297252178192, 0.11674093455076218, 0.19882087409496307, -0.36571842432022095, -0.14540207386016846, 0.19556555151939392, -0.019622378051280975, -0.06858046352863312, -0.1506897509098053, 0.00929165817797184, 0.05450272187590599, -0.3604155480861664, 0.1959819793701172, 0.23993201553821564, 0.013483773916959763, -0.08711175620555878, 0.05150275677442551, 0.16331739723682404, -0.03380867838859558, -0.09013662487268448, 0.1603272706270218, 0.15643303096294403, -0.2560758590698242, 0.1876308023929596, -0.11009051650762558, -0.01889939233660698, 0.14718355238437653, -0.09499097615480423, 0.15110690891742706, -0.02089376002550125, 0.16227875649929047, 0.21654163300991058, -0.1296989917755127, -0.2704159915447235, -0.07532422989606857, 0.17967459559440613, 0.05956769362092018, 0.022356022149324417, 0.5064228773117065, 0.08105449378490448, 0.09088177233934402, 0.09792201220989227, 0.14110371470451355, 0.07317221164703369, -0.0045020692050457, -0.07271452248096466, 0.29505500197410583, 0.00741216354072094, -0.19208693504333496, -0.05209570378065109, -0.0017485334537923336, -0.40859246253967285, 0.10150057822465897, 0.30025434494018555, -0.1773076355457306, 0.06179313361644745, 0.027454255148768425, -0.005483362358063459, -0.13300146162509918, -0.19011050462722778, 0.13358686864376068, 0.14589092135429382, 0.14265474677085876, 0.003280425677075982, -0.0411183200776577, 0.31439208984375, -0.005127589218318462, 0.5112583637237549, -0.027929306030273438, 0.17422924935817719, -0.01871931552886963, 0.03575904294848442, 0.10503334552049637, 0.03812310844659805, 0.02133083902299404, -0.10780228674411774, 0.006205067504197359, 0.23963665962219238, -0.17470118403434753, 0.060296431183815], [-0.1007792204618454, -0.06839565187692642, -0.2213699221611023, 0.1396772563457489, 0.11794130504131317, -0.209206685423851, -0.023436300456523895, 0.27523455023765564, 0.25864121317863464, -0.15393555164337158, 0.031031765043735504, 0.13873519003391266, 0.026257269084453583, -0.0012347385054454207, -0.467440128326416, -0.1503468006849289, -0.055295877158641815, 0.11302641779184341, -0.2513147294521332, 0.4359908998012543, -0.35991665720939636, -0.1017894595861435, 0.20826824009418488, 0.1945042461156845, 0.15428027510643005, -0.19352523982524872, -0.41008099913597107, -0.08054570853710175, 0.2114836722612381, 0.06634126603603363, -0.03827301412820816, -0.09373820573091507, -0.6488029956817627, -0.2501237988471985, -0.34627586603164673, 0.0572018027305603, -0.5880313515663147, 0.3044918179512024, -0.2595531940460205, -0.03250361979007721, -0.5435187220573425, -0.09596983343362808, -0.1253235936164856, -0.2751026749610901, -0.052170976996421814, 0.0749276801943779, 0.13292668759822845, 0.012586044147610664, 0.24607893824577332, -0.0046576205641031265, 0.13984593749046326, 0.13019146025180817, 0.2042544186115265, 0.6890094876289368, -0.20266377925872803, -0.20800304412841797, 0.12764842808246613, 0.06076618283987045, 0.3461540639400482, 0.21195708215236664, -0.22385238111019135, 0.2352847307920456, -0.32302793860435486, 0.015605628490447998, -0.043620433658361435, -0.5422064661979675, 0.03905034437775612, -0.02262772060930729, 0.005667067598551512, -0.14803749322891235, 0.3902660310268402, -0.3861852288246155, 0.18849340081214905, -0.21605965495109558, 0.20668089389801025, -0.09614399820566177, -0.18103449046611786, -0.25037139654159546, -0.13545432686805725, 0.04040976241230965, 0.12106000632047653, 0.21400566399097443, 0.035986870527267456, -0.1953021138906479, 0.026064557954669, -0.23588503897190094, 0.18945252895355225, 0.05783568322658539, -0.7903076410293579, -0.12179136276245117, 0.36682453751564026, -0.025530630722641945, 0.17984986305236816, 0.2960028350353241, -0.33509090542793274, -0.3524288237094879, -0.5852459669113159, 0.08447302132844925, 0.12229512631893158, 0.11760422587394714, -0.10428904742002487, 0.25195977091789246, -0.35845035314559937, -0.5627954006195068, 0.35000118613243103, 0.3644770681858063, 0.2499873787164688, -0.19267338514328003, -0.14089618623256683, 0.30822184681892395, -0.10004796087741852, 0.44645529985427856, 0.16801270842552185, -0.0901184007525444, 0.33693090081214905, -0.1619565784931183, 0.5202624797821045, 0.04304647073149681, -0.5673057436943054, 0.17196205258369446, -0.5538327097892761, 0.04392329230904579, 0.28935161232948303, -0.2356795221567154, -0.1867903620004654, -0.019218232482671738, -0.014531712047755718, -0.293327659368515], [0.0359678752720356, -0.15083426237106323, 0.16854286193847656, 0.13760624825954437, 0.23471499979496002, 0.09373008459806442, 0.009918224066495895, -0.0530819334089756, -0.47623878717422485, -0.3031589686870575, -0.14582155644893646, 0.22325056791305542, 0.17813149094581604, 0.2555307149887085, 0.20841479301452637, -0.24624229967594147, -0.041889265179634094, -0.13160718977451324, 0.15903250873088837, -0.05670011416077614, 0.12666210532188416, 0.16035196185112, -0.21223729848861694, 0.024429162964224815, 0.1167893335223198, -0.08410291373729706, 0.289194792509079, -0.2785099148750305, -0.050313517451286316, 0.30576443672180176, 0.08927247673273087, -0.011243918910622597, 0.17478996515274048, 0.11832598596811295, 0.4092867970466614, -0.03899810090661049, 0.011905989609658718, 0.037275075912475586, 0.03438349440693855, -0.22644661366939545, 0.4700186252593994, -0.09426376968622208, 0.006400333717465401, 0.2456330806016922, 0.2290932536125183, 0.05694718658924103, 0.00385631644167006, -0.11061299592256546, -0.24071523547172546, -0.2729586362838745, -0.08098091930150986, -0.01926327869296074, -0.20745252072811127, -0.032876309007406235, 0.2592814862728119, -0.16515205800533295, 0.13764162361621857, 0.07314205169677734, 0.1592598408460617, -0.1710090935230255, 0.314450204372406, -0.2669324576854706, 0.1207563653588295, -0.19246463477611542, -0.10970773547887802, 0.1329079568386078, 0.07330645620822906, 0.1840597242116928, 0.03953893855214119, 0.24196583032608032, -0.22119829058647156, 0.30450180172920227, 0.19117705523967743, -0.05455020070075989, 0.12191084772348404, -0.3173315227031708, 0.19570639729499817, 0.2811601161956787, -0.03891751170158386, 0.20339997112751007, 0.09760986268520355, 0.07965420186519623, 0.2824896275997162, 0.22571009397506714, 0.14250421524047852, -4.447856917977333e-05, -0.07666454464197159, 0.25415536761283875, 0.3206159174442291, 0.19221073389053345, 0.2628735303878784, -0.23997946083545685, -0.2535458207130432, 0.14931395649909973, 0.11362925916910172, 0.28394946455955505, -0.25363829731941223, -0.22729089856147766, -0.22727976739406586, -0.11346541345119476, 0.0916769802570343, 0.1846492737531662, -0.04414500668644905, 0.32914185523986816, -0.05059746280312538, 0.0873352512717247, 0.05054294690489769, -0.08150257915258408, 0.2755734920501709, -0.21581606566905975, 0.004482211545109749, 0.08570773899555206, -0.19912007451057434, 0.2647283971309662, -0.02562020719051361, 0.2492195963859558, -0.026682265102863312, 0.0052317543886601925, -0.05669388920068741, -0.06942278146743774, 0.06711734086275101, 0.02023276686668396, 0.06881844997406006, 0.2841467261314392, 0.2655523419380188, 0.3235812187194824, 0.1192764937877655, 0.2123509794473648], [-0.6284744143486023, -0.0008686202927492559, -0.21258655190467834, 0.0060465275309979916, -0.29942047595977783, 0.17246317863464355, 0.12775084376335144, 0.06060878932476044, 0.1571323275566101, 0.02632857859134674, 0.25884729623794556, 0.1593460738658905, 0.1807509809732437, 0.10807008296251297, 0.184109628200531, -0.12433308362960815, -0.042362891137599945, 0.20929579436779022, -0.13467690348625183, 0.017126165330410004, -0.1469268947839737, 0.11922057718038559, 0.3742411732673645, -0.3809373378753662, -0.29238736629486084, 0.01993045210838318, 0.07793138921260834, 0.08480517566204071, 0.1354280263185501, -0.7243579626083374, 0.007464752532541752, -0.3048786520957947, -0.25454971194267273, -0.13647642731666565, -0.11419540643692017, 0.31599661707878113, 0.47576338052749634, -0.22443822026252747, 0.09286151081323624, -0.16496796905994415, -0.14918933808803558, -0.2754552364349365, -0.11603150516748428, -0.12321432679891586, -0.13167068362236023, 0.29806363582611084, 0.03415437787771225, 0.30996760725975037, 0.21739189326763153, 0.02417886070907116, -0.05529167875647545, 0.30077171325683594, -0.020244156941771507, 0.20891055464744568, 0.308692991733551, 0.18851567804813385, -0.11580605804920197, -0.10073895007371902, 0.1433905065059662, -0.02806580252945423, -0.2337508350610733, 0.0986989364027977, 0.11269202083349228, -0.07594870775938034, 0.2971092462539673, 0.11365808546543121, -0.4656398892402649, 0.21751531958580017, -0.11586146801710129, 0.13958878815174103, 0.1310778707265854, -0.3570036292076111, -0.019748518243432045, 0.23528414964675903, -0.3684220016002655, -0.002270605182275176, -0.42409029603004456, -0.07165295630693436, 0.1281571090221405, -0.14364255964756012, -0.6130805611610413, -0.12495217472314835, -0.3090161681175232, 0.017887229099869728, 0.20846758782863617, 0.06508565694093704, 0.03550714999437332, -0.2134832739830017, -1.0610482692718506, -0.14311529695987701, -0.46144258975982666, 0.13786397874355316, -0.22909723222255707, 0.3006550669670105, -0.2041400521993637, -0.7197093367576599, -0.38054269552230835, 0.07006806135177612, -0.05140427127480507, 0.23685476183891296, -0.15342706441879272, -0.036910220980644226, 0.23516397178173065, 0.2867935001850128, -0.0033744415268301964, -0.526657223701477, 0.10945997387170792, 0.30562010407447815, -0.036937542259693146, -0.24875544011592865, -0.07216791063547134, 0.05812552571296692, -0.20428331196308136, -0.1747625470161438, -0.4072626829147339, -0.18177630007266998, 0.1890878528356552, -0.12097730487585068, -0.34724292159080505, -0.0029708545189350843, 0.0696549192070961, 0.4052073061466217, -0.21301588416099548, -0.15668319165706635, -0.29154694080352783, 0.06144561618566513, -0.05357484892010689, 0.011736411601305008], [0.03501388430595398, -0.07226719707250595, 0.21126966178417206, 0.10927874594926834, 0.15801410377025604, 0.04218485206365585, 0.006074606440961361, 0.0002777801710180938, 0.09746235609054565, -0.03468440845608711, 0.3462269604206085, 0.32240885496139526, 0.12117550522089005, 0.13892585039138794, 0.1262749433517456, 0.16428938508033752, 0.19028526544570923, 0.029852235689759254, -0.040074873715639114, -0.4743030369281769, 0.0983118861913681, -0.015574944205582142, 0.006512083578854799, -0.07361018657684326, -0.28650638461112976, 0.1291455626487732, -0.39208558201789856, 0.4170132577419281, 0.07982102036476135, -0.08652407675981522, -0.5185409784317017, 0.20038574934005737, -0.24301694333553314, -0.5532451272010803, -0.22032038867473602, -0.1321655958890915, 0.018512919545173645, -0.022026579827070236, -0.3948538303375244, -0.17695124447345734, -0.015155760571360588, 0.14931407570838928, 0.09235789626836777, -0.28429198265075684, 0.004159347619861364, 0.020951014012098312, 0.13765166699886322, 0.1965610682964325, 0.14062634110450745, 0.09401257336139679, 0.08780569583177567, 0.062704898416996, 0.19613105058670044, -0.1891629844903946, -0.13486111164093018, 0.06701482087373734, 0.26909106969833374, -0.2673167586326599, 0.11515724658966064, -0.27510958909988403, -0.271476149559021, -0.07142793387174606, -0.24775277078151703, 0.2483467012643814, -0.010892536491155624, 0.030329011380672455, -0.17275960743427277, -0.40045323967933655, 0.0710458755493164, -0.008150089532136917, -0.17096175253391266, -0.025891881436109543, -0.3624437153339386, 0.3230760991573334, 0.01057070679962635, -0.08987000584602356, -0.09847919642925262, -0.27604642510414124, 0.03983461111783981, -0.005675880704075098, -0.07050919532775879, 0.06361833959817886, -0.06200035661458969, -0.19731463491916656, 0.1258411407470703, 0.05261927470564842, 0.17314818501472473, 0.15199364721775055, 0.11199060082435608, 0.2112060785293579, 0.3134029805660248, 0.3194815218448639, -0.06283704191446304, -0.10599229484796524, -0.12760977447032928, -0.3434107005596161, 0.17842353880405426, -0.020850345492362976, 0.15308257937431335, 0.10186958312988281, -0.6354078054428101, 0.22824504971504211, 0.08009764552116394, 0.1654636710882187, 0.20762543380260468, 0.035611528903245926, 0.10718873143196106, -0.007125953212380409, 0.044823724776506424, 0.21752142906188965, -0.10347332060337067, -0.13103468716144562, -0.12432282418012619, -0.08257685601711273, 0.08514871448278427, -0.1270383596420288, -0.40074387192726135, -0.08635514974594116, 0.1865902990102768, 0.20151326060295105, -0.6180750131607056, -0.02761484868824482, -0.19008216261863708, 0.2801869511604309, -0.040320418775081635, -0.33987894654273987, 0.020910969004034996, -0.7059102654457092], [-0.20984730124473572, 0.06498924642801285, 0.12035121023654938, 0.005797365680336952, -0.09697020798921585, 0.11849715560674667, -0.12401781976222992, 0.04228384047746658, -0.09686437994241714, 0.11222155392169952, 0.24655289947986603, 0.037463776767253876, -0.050254371017217636, -0.08366259187459946, 0.0905335396528244, -0.2090570479631424, 0.1285540610551834, 0.08197951316833496, -0.2219236046075821, -0.18388943374156952, -0.11418309807777405, -0.2153937816619873, 0.35084909200668335, -0.036721546202898026, -0.03013909049332142, -0.06880198419094086, 0.14363467693328857, 0.027501456439495087, 0.06281592696905136, 0.18890118598937988, -0.26521703600883484, -0.08915501832962036, 0.015520290471613407, 0.16505661606788635, -0.16619502007961273, 0.18570050597190857, 0.11906581372022629, -0.43844109773635864, -0.026835063472390175, 0.08310502767562866, -0.09361191838979721, -0.07935713976621628, 0.12017160654067993, 0.010429199784994125, -0.40934762358665466, 0.1245427280664444, -0.13154807686805725, 0.05803067982196808, 0.051066335290670395, 0.05448537319898605, 0.1469554752111435, 0.40586963295936584, 0.12727656960487366, 0.34675168991088867, 0.2895600497722626, -0.05040311440825462, -0.3593469262123108, 0.09570696204900742, 0.41811707615852356, -0.0367937833070755, 0.008802056312561035, 0.03729645907878876, 0.3568611145019531, 0.046824246644973755, 0.15029479563236237, -0.08760418742895126, -0.5663804411888123, -0.14309439063072205, 0.3051939606666565, -0.008879657834768295, -0.19895175099372864, 0.17286469042301178, -0.13360139727592468, 0.23835082352161407, 0.08326300978660583, 0.17429110407829285, -0.015718230977654457, -0.28704649209976196, -0.14360439777374268, 0.08063435554504395, 0.08351980894804001, -0.10878095030784607, 0.2155294567346573, -0.33674249053001404, 0.07423074543476105, -0.01228720135986805, -0.12016952782869339, -0.07415282726287842, -0.26693490147590637, -0.01987866871058941, -0.23228853940963745, 0.2666577994823456, 0.2686058282852173, 0.3662184774875641, -0.10183770954608917, -0.004217133857309818, -0.07129191607236862, 0.33316585421562195, 0.131412535905838, -0.16804960370063782, -0.2610231339931488, 0.12625698745250702, -0.06098032742738724, 0.2840544581413269, -0.11227840930223465, -0.1645313799381256, 0.22204595804214478, 0.2901160418987274, 0.1497744470834732, -0.18817996978759766, 0.06444169580936432, -0.053185515105724335, -0.2551012337207794, 0.2039368897676468, 0.024904780089855194, -0.14564871788024902, 0.22339610755443573, -0.26222655177116394, 0.003428898984566331, -0.1121005117893219, 0.10880852490663528, -0.24194805324077606, 0.0644744262099266, 0.014170105569064617, 0.29456421732902527, 0.04648991674184799, 0.009728624485433102, -0.2244827002286911], [-0.1419675499200821, -0.07375778257846832, 0.011375305242836475, 0.012340531684458256, -0.12309637665748596, -0.08626528829336166, -0.013112599030137062, -0.19401314854621887, 0.06098213419318199, 0.034667085856199265, 0.10667845606803894, 0.01832766830921173, -0.09081324189901352, -0.056993138045072556, 0.05208098515868187, 0.03799987584352493, -0.14475210011005402, -0.03676827251911163, 0.04616081714630127, -0.14005723595619202, -0.055371638387441635, -0.06979751586914062, -0.08082861453294754, 0.10586022585630417, -0.012836704030632973, -0.1771191507577896, -0.003010733053088188, -0.2068617045879364, -0.008031380362808704, 0.10269995033740997, -0.18404839932918549, -0.15477778017520905, 0.11955906450748444, -0.08436017483472824, -0.17862343788146973, -0.10041625052690506, -0.1494624763727188, -0.17975546419620514, -0.16185256838798523, 0.06905075162649155, -0.04525679349899292, -0.04457291215658188, 0.09268905967473984, -0.18266801536083221, -0.1747349202632904, 0.12021992355585098, -0.1402551382780075, -0.06957139819860458, -0.22848547995090485, 0.09671733528375626, 0.12013952434062958, 0.04245366156101227, 0.04478268697857857, 0.031014278531074524, 0.12319912761449814, -0.03220466896891594, 0.0896114632487297, -0.16133573651313782, 0.0418623611330986, 0.13907362520694733, 0.13987548649311066, -0.12340860068798065, -0.16177885234355927, -0.16837359964847565, 0.012833155691623688, -0.0682690367102623, 0.04934937134385109, 0.03561759740114212, 0.08256378024816513, 0.11994556337594986, -0.00030211490229703486, 0.09927009791135788, 